291 300
， 0.37663 -0.36956 -0.20779 -0.28702 0.3889 0.4832 0.31277 -0.096743 0.37929 0.16863 0.22936 0.24571 0.037803 -0.36636 -0.43989 0.056971 -0.080398 -0.20404 0.0061618 -0.24743 -0.2147 -0.019879 0.20147 -0.10479 -0.33471 -0.64467 -0.16179 0.092369 -0.62157 0.10043 -0.37623 -0.48563 -0.072514 0.32647 -0.46242 -0.59766 -0.33802 -0.2261 0.44413 0.22061 0.24133 0.57482 -0.46227 0.31717 0.30397 -0.22568 -0.65779 0.07173 -0.20816 -0.15029 -0.090305 -0.50173 -0.3698 0.058822 0.50272 -0.3392 -0.39246 0.0010092 0.70158 0.059542 -0.98674 -0.23313 0.12739 0.51438 0.1812 -0.38071 0.37606 0.15506 -0.0825 -0.038917 -0.23297 0.053306 -0.19476 0.090707 -0.12906 0.24472 0.08364 0.0056997 0.088571 0.33044 0.067342 0.1636 0.20975 -0.08989 -0.12344 -0.12459 -0.16947 0.34223 -0.19043 -0.077346 0.19046 0.13601 0.45611 -0.019911 -0.50704 -0.1964 -0.20935 -0.091814 -0.13636 0.049634 0.044273 0.23167 0.14681 0.29277 0.033839 -0.11414 -0.0092644 -0.47228 0.22135 -0.48343 0.25468 -0.25968 -0.30902 -0.30299 0.17505 -0.13102 0.12671 -0.1692 -0.17269 0.18651 0.28575 0.09694 0.17067 0.1109 -0.29392 -0.27192 0.50688 0.19343 0.36537 0.071968 -0.17347 -0.1774 -0.58817 -0.072747 -0.096515 0.41686 -0.37821 -0.11242 0.099945 -0.0065185 0.10013 0.43173 -0.42758 -0.33751 0.43291 -0.53535 0.18799 0.01791 -0.29143 0.079066 -0.5719 -0.063936 -0.050726 0.30822 -0.21605 -0.049612 -0.24041 0.22669 0.030436 0.42627 0.30565 0.20739 -0.40082 0.19278 -0.35988 -0.2234 -0.042382 -0.38345 -0.46998 0.1669 -0.024575 0.28432 0.43994 0.44965 0.073364 -0.61338 0.22079 0.48728 0.78715 0.27211 -0.37721 -0.47409 -0.69954 0.82919 -0.42761 0.49603 0.14357 -0.54338 -0.02431 -0.061367 0.074133 0.11067 0.72017 -0.35857 -0.16266 0.13904 -0.12684 -0.22263 -0.3319 -0.26038 0.37867 -0.32898 0.11312 -0.34534 -0.3531 -0.16923 0.18973 0.2732 -0.1816 0.13252 -0.32707 0.52083 -0.0049943 -0.076129 -0.13973 0.31787 -0.77803 -0.19221 0.20283 0.42883 -0.036273 -0.51347 -0.13835 -0.64956 0.12379 -0.38462 -0.28102 -0.14129 -0.23179 0.080562 0.018534 -0.22432 0.046675 -0.10655 0.14538 -0.27706 -0.068243 0.27823 -0.28106 -0.13297 -0.36567 0.2923 0.23239 -0.11866 0.093289 0.20879 0.25382 0.029599 0.049322 0.41613 0.0089088 -0.3572 -0.58723 0.43584 -0.27669 -0.060322 0.012174 0.26478 0.39756 -0.50606 0.36082 -0.091257 0.17059 0.52623 -0.15687 0.26349 0.040916 0.22469 0.12167 -0.21548 0.31485 0.33009 0.29811 -0.072379 -0.38826 0.11454 0.20053 0.1047 0.2677 0.056116 0.19799 0.23566 -0.47187 -0.030347 0.75271 -0.16146 0.39103 0.5394 0.74064 0.2541 -0.065261 0.32954 0.657 0.27949 -0.43228 0.17774 -0.052371 -0.080465 -0.18524 -0.25327 
　 0.33082 -0.32693 -0.18584 -0.25458 0.34087 0.42675 0.27642 -0.087188 0.33121 0.14821 0.2004 0.21882 0.031296 -0.32375 -0.3882 0.051558 -0.074196 -0.18098 0.0078355 -0.21785 -0.18935 -0.018118 0.17566 -0.089723 -0.29677 -0.56914 -0.14205 0.081473 -0.55015 0.087963 -0.32806 -0.42392 -0.063163 0.28972 -0.40746 -0.52419 -0.30035 -0.19783 0.39121 0.19608 0.21019 0.50472 -0.40911 0.27809 0.2663 -0.19965 -0.5786 0.063601 -0.17978 -0.13217 -0.079611 -0.44596 -0.32562 0.050929 0.44159 -0.30008 -0.3476 0.0016794 0.6191 0.053001 -0.86873 -0.20647 0.11046 0.45009 0.15786 -0.33569 0.33345 0.13575 -0.074327 -0.034021 -0.20073 0.047631 -0.17291 0.081651 -0.1153 0.21554 0.072458 0.0054675 0.077692 0.29347 0.061615 0.14515 0.18556 -0.077281 -0.10534 -0.11043 -0.14939 0.30158 -0.17087 -0.069038 0.16585 0.11673 0.39908 -0.014265 -0.4456 -0.17265 -0.18493 -0.080933 -0.11815 0.044791 0.03957 0.20264 0.12945 0.26105 0.031633 -0.098841 -0.0079201 -0.41762 0.19661 -0.42583 0.22457 -0.23027 -0.27209 -0.26792 0.15606 -0.11491 0.10977 -0.15049 -0.1525 0.16703 0.25362 0.085476 0.14741 0.09407 -0.25454 -0.239 0.44862 0.17198 0.3219 0.06606 -0.15214 -0.15666 -0.52022 -0.062984 -0.086421 0.36737 -0.33702 -0.10082 0.088694 -0.0050326 0.090513 0.37973 -0.37487 -0.2945 0.38055 -0.47338 0.166 0.019575 -0.25528 0.071359 -0.50446 -0.054612 -0.041914 0.27137 -0.1887 -0.04111 -0.21119 0.19849 0.024276 0.37891 0.26986 0.18172 -0.35492 0.16846 -0.31663 -0.19464 -0.0379 -0.33818 -0.41391 0.14842 -0.021853 0.25185 0.38719 0.39865 0.064012 -0.54242 0.19446 0.42827 0.69538 0.24096 -0.33424 -0.41753 -0.61779 0.73154 -0.37895 0.43648 0.12574 -0.47747 -0.020723 -0.054532 0.066307 0.099112 0.63582 -0.31735 -0.14298 0.1231 -0.11032 -0.1986 -0.2904 -0.22764 0.33344 -0.28737 0.10182 -0.30453 -0.31166 -0.14882 0.16689 0.24077 -0.16441 0.1188 -0.29061 0.46134 -0.0033502 -0.064417 -0.1229 0.28111 -0.68484 -0.17079 0.18096 0.37462 -0.036457 -0.45108 -0.11888 -0.57452 0.11068 -0.33579 -0.24935 -0.12631 -0.20282 0.069203 0.017606 -0.1993 0.039718 -0.095717 0.12879 -0.24212 -0.0595 0.24129 -0.24954 -0.11562 -0.32204 0.25423 0.20601 -0.10296 0.083239 0.18255 0.22348 0.024889 0.04422 0.36569 0.0073294 -0.31355 -0.51906 0.3875 -0.24104 -0.05334 0.012352 0.2328 0.3512 -0.44542 0.31297 -0.082575 0.1494 0.462 -0.13592 0.23048 0.036716 0.19459 0.10566 -0.18819 0.27323 0.29296 0.26267 -0.063006 -0.33959 0.10058 0.17695 0.092638 0.23135 0.050555 0.17551 0.21025 -0.41263 -0.026858 0.66254 -0.14074 0.34262 0.47543 0.64988 0.22329 -0.057432 0.29014 0.57629 0.24856 -0.38196 0.15606 -0.045321 -0.07203 -0.16504 -0.22744 
的 0.38653 -0.37936 -0.21366 -0.29552 0.39719 0.49195 0.31963 -0.098692 0.38538 0.17213 0.23264 0.25158 0.035097 -0.37703 -0.45324 0.06038 -0.084313 -0.20776 0.0090427 -0.25262 -0.21873 -0.020164 0.20493 -0.10843 -0.34495 -0.66117 -0.16752 0.095879 -0.63698 0.10396 -0.38584 -0.49805 -0.077481 0.33427 -0.47159 -0.6096 -0.34718 -0.22987 0.4567 0.22872 0.24263 0.58889 -0.47397 0.32285 0.31165 -0.23268 -0.67088 0.071346 -0.21339 -0.15385 -0.090583 -0.51701 -0.37889 0.06153 0.51582 -0.34683 -0.4008 -0.00030314 0.72123 0.061291 -1.0098 -0.23795 0.12851 0.52189 0.18767 -0.38864 0.38588 0.15675 -0.085395 -0.036281 -0.23607 0.055712 -0.20195 0.093792 -0.13336 0.25082 0.081471 0.0015829 0.08918 0.3407 0.071857 0.16597 0.2134 -0.0934 -0.12125 -0.12689 -0.17309 0.35265 -0.19513 -0.077966 0.19484 0.13655 0.46376 -0.016902 -0.51912 -0.19932 -0.21714 -0.094835 -0.13354 0.047217 0.043983 0.235 0.14682 0.30128 0.036269 -0.1161 -0.0080553 -0.48283 0.22625 -0.49301 0.26122 -0.26699 -0.31338 -0.30979 0.18263 -0.13347 0.12587 -0.17161 -0.17375 0.19191 0.29387 0.097771 0.17374 0.11033 -0.29797 -0.27991 0.51875 0.19932 0.37313 0.073953 -0.17728 -0.17835 -0.6006 -0.070995 -0.10028 0.42814 -0.38704 -0.12039 0.10527 -0.0071562 0.10411 0.44196 -0.43829 -0.3445 0.44259 -0.54489 0.19338 0.021391 -0.29481 0.085169 -0.58551 -0.063403 -0.048512 0.31637 -0.21879 -0.049785 -0.24636 0.22859 0.030233 0.43405 0.31426 0.2079 -0.40915 0.19523 -0.37202 -0.22648 -0.041892 -0.39134 -0.4803 0.17034 -0.025244 0.29054 0.44794 0.46106 0.080227 -0.62554 0.227 0.4991 0.80308 0.27919 -0.38678 -0.48578 -0.71594 0.8502 -0.43962 0.50523 0.14641 -0.55302 -0.023881 -0.063538 0.076654 0.11259 0.73153 -0.36855 -0.16838 0.13992 -0.1311 -0.23004 -0.33546 -0.26576 0.38784 -0.33752 0.11671 -0.35289 -0.35922 -0.1716 0.1936 0.28136 -0.18968 0.13501 -0.3355 0.53223 -0.0043022 -0.074319 -0.13955 0.32521 -0.79369 -0.19806 0.20995 0.43807 -0.043375 -0.5249 -0.13824 -0.6682 0.12676 -0.3946 -0.28803 -0.14647 -0.23433 0.083854 0.01965 -0.23097 0.049907 -0.11189 0.15012 -0.28361 -0.067116 0.28111 -0.28797 -0.13391 -0.37428 0.29364 0.2414 -0.12032 0.099011 0.21364 0.2597 0.029366 0.050672 0.42646 0.011147 -0.36385 -0.60198 0.44833 -0.28294 -0.061433 0.011758 0.27079 0.4063 -0.51593 0.36563 -0.095245 0.17617 0.53743 -0.15819 0.26916 0.046198 0.22656 0.12163 -0.21878 0.32122 0.33628 0.30353 -0.068762 -0.39404 0.11763 0.20359 0.10902 0.27271 0.059199 0.20142 0.23964 -0.48239 -0.030861 0.77122 -0.16287 0.4026 0.54932 0.7558 0.25959 -0.067405 0.33543 0.67147 0.28772 -0.44423 0.18122 -0.051222 -0.082712 -0.18694 -0.26138 
。 0.32123 -0.31736 -0.17658 -0.24391 0.33144 0.41319 0.26955 -0.08487 0.31875 0.14376 0.19421 0.20827 0.032192 -0.31612 -0.37889 0.048126 -0.071945 -0.17573 0.0068065 -0.21122 -0.18351 -0.018738 0.17272 -0.088687 -0.29003 -0.55152 -0.13888 0.075843 -0.52853 0.08122 -0.32039 -0.41224 -0.062642 0.27966 -0.39349 -0.50949 -0.28916 -0.19118 0.38047 0.18826 0.20397 0.49267 -0.39617 0.26987 0.25929 -0.19526 -0.56045 0.060681 -0.17576 -0.12664 -0.075125 -0.43241 -0.31544 0.048882 0.42964 -0.28816 -0.33639 0.0040776 0.60033 0.053449 -0.84272 -0.19868 0.10726 0.43898 0.15352 -0.32512 0.32119 0.13345 -0.072464 -0.033261 -0.19569 0.046517 -0.16691 0.080577 -0.10961 0.20814 0.068997 0.0048691 0.077945 0.28282 0.062255 0.13776 0.17787 -0.077651 -0.10551 -0.10444 -0.14712 0.29485 -0.16246 -0.065045 0.16312 0.11749 0.38903 -0.017302 -0.4339 -0.16624 -0.17979 -0.080416 -0.1139 0.039623 0.039369 0.19682 0.12435 0.25555 0.030755 -0.098652 -0.009054 -0.40347 0.18977 -0.41388 0.21714 -0.22187 -0.26356 -0.26044 0.14766 -0.11099 0.10653 -0.14495 -0.14225 0.15881 0.24627 0.0832 0.14881 0.088769 -0.24938 -0.23353 0.43162 0.16496 0.31001 0.060555 -0.14586 -0.15167 -0.50434 -0.061172 -0.079766 0.35378 -0.32182 -0.099502 0.084811 -0.007092 0.087993 0.36672 -0.36795 -0.28877 0.36853 -0.45433 0.16038 0.018175 -0.24786 0.068017 -0.49017 -0.054225 -0.041424 0.26178 -0.18347 -0.042929 -0.20654 0.19454 0.024355 0.36375 0.26468 0.17775 -0.34041 0.166 -0.30739 -0.18873 -0.035976 -0.32638 -0.39963 0.14427 -0.019607 0.24414 0.37766 0.38428 0.063494 -0.5219 0.1874 0.41505 0.67325 0.23338 -0.32044 -0.40182 -0.59901 0.70671 -0.36481 0.41796 0.12022 -0.4623 -0.023323 -0.051884 0.063319 0.094586 0.61458 -0.307 -0.14047 0.116 -0.10711 -0.19212 -0.28387 -0.22242 0.32582 -0.27975 0.09736 -0.29358 -0.30217 -0.14103 0.16492 0.2331 -0.15942 0.11215 -0.27912 0.44631 -0.00050675 -0.061683 -0.11749 0.27084 -0.6619 -0.16432 0.1727 0.36436 -0.033667 -0.43536 -0.11682 -0.55684 0.1057 -0.32593 -0.2403 -0.11848 -0.19724 0.067472 0.017659 -0.19096 0.039616 -0.094964 0.12475 -0.23811 -0.054774 0.23457 -0.24215 -0.1114 -0.31272 0.24746 0.19972 -0.099663 0.079959 0.17911 0.21565 0.025241 0.041975 0.35482 0.0083661 -0.30161 -0.50157 0.37123 -0.2341 -0.051409 0.010158 0.22519 0.33983 -0.4331 0.30566 -0.081181 0.14545 0.44934 -0.13194 0.22553 0.035734 0.19329 0.10143 -0.18198 0.26693 0.28077 0.25629 -0.060279 -0.33135 0.09849 0.16978 0.089381 0.22538 0.048085 0.17055 0.20348 -0.40194 -0.024484 0.64264 -0.13457 0.33616 0.4606 0.62991 0.21524 -0.056065 0.28325 0.55804 0.2415 -0.37107 0.15198 -0.043671 -0.070694 -0.16029 -0.21914 
在 0.27778 -0.27504 -0.15436 -0.21111 0.28666 0.35245 0.22812 -0.072672 0.27637 0.12331 0.16693 0.18292 0.027657 -0.26782 -0.32369 0.041275 -0.059297 -0.15039 0.0060755 -0.18093 -0.15797 -0.015137 0.14902 -0.074877 -0.24847 -0.47468 -0.11922 0.068016 -0.45512 0.073327 -0.27434 -0.35299 -0.051534 0.24217 -0.34207 -0.43658 -0.24856 -0.16592 0.32517 0.16287 0.17684 0.42177 -0.33914 0.23317 0.22441 -0.16969 -0.48224 0.052441 -0.15121 -0.11065 -0.064335 -0.37354 -0.27042 0.043947 0.36894 -0.2506 -0.2911 0.00032545 0.51462 0.046263 -0.72143 -0.17226 0.094741 0.37653 0.13294 -0.2797 0.27469 0.11328 -0.060874 -0.0304 -0.16858 0.040028 -0.14214 0.068262 -0.096619 0.17871 0.060506 0.0047625 0.064109 0.24546 0.053384 0.11933 0.15256 -0.066159 -0.088953 -0.088511 -0.12577 0.25013 -0.13996 -0.055872 0.1406 0.099245 0.33157 -0.016371 -0.37209 -0.1435 -0.15401 -0.071772 -0.098496 0.036355 0.033938 0.16706 0.10735 0.21742 0.023362 -0.083426 -0.0073455 -0.34859 0.16338 -0.35497 0.18836 -0.18835 -0.22793 -0.22258 0.1273 -0.093184 0.093521 -0.12341 -0.12765 0.13706 0.21045 0.070978 0.12455 0.079522 -0.21354 -0.19714 0.37555 0.14192 0.26881 0.052537 -0.1237 -0.12991 -0.43423 -0.052414 -0.069129 0.30704 -0.27889 -0.087277 0.075579 -0.0056473 0.075157 0.3156 -0.31355 -0.24806 0.31579 -0.39462 0.13482 0.014553 -0.21116 0.058929 -0.4209 -0.04327 -0.039026 0.22524 -0.15968 -0.035677 -0.17776 0.16546 0.017548 0.31351 0.22427 0.14999 -0.29458 0.14406 -0.2672 -0.1634 -0.031726 -0.28141 -0.34293 0.12528 -0.019414 0.2089 0.32265 0.33076 0.056363 -0.44985 0.16495 0.35692 0.57809 0.20138 -0.2762 -0.34668 -0.51418 0.61082 -0.31544 0.36384 0.1062 -0.40034 -0.019147 -0.043468 0.054695 0.084119 0.52778 -0.26421 -0.12244 0.10154 -0.093983 -0.16504 -0.24036 -0.19031 0.27826 -0.24375 0.084541 -0.25032 -0.25995 -0.12251 0.14003 0.19931 -0.13474 0.098319 -0.24084 0.38616 -0.0060297 -0.052998 -0.10495 0.23261 -0.57092 -0.14079 0.14996 0.31579 -0.028939 -0.37421 -0.101 -0.48221 0.089915 -0.2813 -0.20583 -0.10417 -0.16706 0.057509 0.014917 -0.16377 0.033656 -0.081146 0.10865 -0.20316 -0.046984 0.20422 -0.20903 -0.096935 -0.27134 0.21376 0.17164 -0.085446 0.06873 0.15174 0.1882 0.020147 0.039245 0.30357 0.0082601 -0.26226 -0.43161 0.3189 -0.20242 -0.046197 0.009741 0.19496 0.29068 -0.36927 0.26222 -0.069025 0.12405 0.38579 -0.11032 0.19164 0.03016 0.16369 0.0892 -0.15704 0.22776 0.24308 0.21868 -0.051816 -0.28608 0.083479 0.14921 0.079991 0.19169 0.042868 0.14563 0.17055 -0.34432 -0.020355 0.55214 -0.11845 0.2885 0.39674 0.54108 0.18361 -0.047175 0.24131 0.48136 0.20725 -0.32032 0.12692 -0.037757 -0.060319 -0.13727 -0.18872 
、 0.22773 -0.21986 -0.12447 -0.17492 0.23375 0.28976 0.18745 -0.060098 0.22508 0.10362 0.13866 0.14525 0.020869 -0.22117 -0.26448 0.036792 -0.048905 -0.12139 0.0023542 -0.14878 -0.12931 -0.014151 0.11902 -0.059334 -0.20156 -0.38805 -0.097945 0.055102 -0.3749 0.056412 -0.22466 -0.2885 -0.040931 0.19289 -0.27644 -0.35727 -0.20511 -0.13401 0.26778 0.13556 0.14271 0.34588 -0.27656 0.19138 0.18047 -0.13625 -0.39468 0.043339 -0.12262 -0.087957 -0.054359 -0.2986 -0.22204 0.035635 0.30237 -0.20301 -0.23715 -0.0017027 0.42307 0.037808 -0.59105 -0.14188 0.072516 0.3084 0.10957 -0.22887 0.22942 0.090884 -0.050841 -0.021395 -0.13559 0.033809 -0.1186 0.054767 -0.075415 0.14584 0.047868 0.0023552 0.054522 0.19914 0.043354 0.098302 0.12495 -0.054341 -0.071687 -0.076257 -0.10059 0.20249 -0.11357 -0.047288 0.11254 0.082389 0.27347 -0.010343 -0.30471 -0.11526 -0.12597 -0.058012 -0.077925 0.029372 0.02757 0.13816 0.0869 0.17877 0.02234 -0.06712 -0.007846 -0.28378 0.13392 -0.28723 0.15319 -0.15398 -0.18605 -0.18069 0.10489 -0.078301 0.077334 -0.10169 -0.10331 0.11293 0.17312 0.058083 0.10235 0.067385 -0.17544 -0.16299 0.30479 0.11637 0.21837 0.044753 -0.10086 -0.10551 -0.35148 -0.04175 -0.059599 0.24741 -0.22815 -0.068773 0.060871 -0.0056978 0.058037 0.25895 -0.25571 -0.20056 0.25907 -0.31962 0.11237 0.011476 -0.17092 0.048505 -0.34349 -0.036982 -0.028512 0.18126 -0.13054 -0.031474 -0.14067 0.13465 0.017103 0.25645 0.18353 0.12275 -0.23905 0.11488 -0.21622 -0.13326 -0.023578 -0.22922 -0.28032 0.10185 -0.014685 0.17144 0.26451 0.26982 0.044769 -0.36662 0.13206 0.29017 0.47362 0.1639 -0.22796 -0.28219 -0.41944 0.49805 -0.25665 0.29755 0.084233 -0.32719 -0.012644 -0.035722 0.047769 0.069636 0.43375 -0.21355 -0.097902 0.082441 -0.075147 -0.13239 -0.19549 -0.15595 0.22866 -0.19726 0.06735 -0.20695 -0.2119 -0.10276 0.11215 0.16422 -0.10906 0.079009 -0.1971 0.31473 -0.0030072 -0.042009 -0.085424 0.19318 -0.46489 -0.11542 0.1226 0.25674 -0.023958 -0.30625 -0.084655 -0.39279 0.072192 -0.22746 -0.16712 -0.085207 -0.13737 0.049589 0.012527 -0.13726 0.028672 -0.065201 0.087197 -0.1659 -0.038314 0.16605 -0.16837 -0.08039 -0.21748 0.17511 0.14159 -0.068579 0.056815 0.12503 0.15362 0.017765 0.030194 0.24652 0.0076299 -0.21071 -0.35287 0.25933 -0.16503 -0.036857 0.0088812 0.16072 0.23755 -0.30097 0.21168 -0.058478 0.10357 0.3167 -0.090911 0.15787 0.025067 0.1354 0.071595 -0.12696 0.18826 0.19964 0.17748 -0.041657 -0.23298 0.066693 0.11895 0.066068 0.15827 0.035935 0.11885 0.14166 -0.28171 -0.018251 0.45315 -0.09609 0.23476 0.32014 0.44284 0.15112 -0.036958 0.19641 0.39387 0.16862 -0.26011 0.10588 -0.031523 -0.04958 -0.11253 -0.15329 
了 0.16974 -0.16324 -0.093129 -0.12853 0.17516 0.21197 0.13853 -0.043162 0.16667 0.074853 0.10182 0.10861 0.017895 -0.16371 -0.19669 0.028214 -0.036745 -0.092718 0.0048117 -0.11047 -0.094414 -0.010122 0.088909 -0.045923 -0.14872 -0.28964 -0.073232 0.037922 -0.27644 0.042727 -0.16841 -0.2185 -0.032435 0.14627 -0.20682 -0.26585 -0.15067 -0.10295 0.19779 0.10077 0.10712 0.25448 -0.20652 0.1417 0.13472 -0.10132 -0.29464 0.033277 -0.093589 -0.067192 -0.043449 -0.22369 -0.16456 0.028349 0.22224 -0.15022 -0.17547 0.0015243 0.31546 0.029633 -0.43763 -0.10555 0.05832 0.22915 0.08197 -0.17054 0.17066 0.066983 -0.039429 -0.017599 -0.10233 0.022132 -0.084888 0.040928 -0.059468 0.10791 0.037277 0.00061122 0.040535 0.14812 0.032414 0.069741 0.094853 -0.040777 -0.053555 -0.052848 -0.076617 0.1533 -0.084835 -0.032343 0.083074 0.062777 0.20462 -0.0082965 -0.22684 -0.086489 -0.095659 -0.04161 -0.058443 0.022338 0.019873 0.10322 0.065482 0.1344 0.016895 -0.050491 -0.0032477 -0.21177 0.099616 -0.21452 0.11108 -0.11703 -0.13545 -0.13668 0.07783 -0.059583 0.05445 -0.077573 -0.075265 0.08285 0.12768 0.043485 0.079056 0.048368 -0.12912 -0.12137 0.22477 0.088446 0.16373 0.034192 -0.074984 -0.07967 -0.2619 -0.031774 -0.042872 0.18599 -0.17097 -0.049734 0.043719 -0.0045732 0.045571 0.19341 -0.19348 -0.15038 0.19197 -0.23838 0.084544 0.0077557 -0.12824 0.033866 -0.25664 -0.028775 -0.02335 0.13534 -0.097866 -0.020622 -0.10562 0.098534 0.014551 0.18735 0.1357 0.090316 -0.18098 0.086912 -0.15894 -0.099033 -0.018666 -0.16691 -0.20879 0.076776 -0.013104 0.12455 0.19445 0.19872 0.032645 -0.27264 0.10182 0.21846 0.35225 0.12068 -0.1678 -0.21136 -0.31149 0.36922 -0.19295 0.2213 0.063948 -0.2416 -0.010648 -0.028201 0.033557 0.049987 0.32071 -0.16066 -0.073391 0.060082 -0.058371 -0.097046 -0.14753 -0.11511 0.1679 -0.14702 0.050187 -0.15189 -0.15908 -0.075182 0.084303 0.12408 -0.081696 0.057186 -0.14556 0.23315 -0.0014113 -0.031071 -0.06134 0.14275 -0.34766 -0.087165 0.092421 0.19141 -0.018501 -0.22998 -0.060918 -0.292 0.056298 -0.17228 -0.12473 -0.060869 -0.10223 0.035835 0.0090524 -0.10234 0.020721 -0.048624 0.064585 -0.12353 -0.027388 0.12465 -0.12494 -0.057388 -0.16338 0.12992 0.1042 -0.051998 0.042715 0.094763 0.11073 0.01188 0.022664 0.18512 0.0063335 -0.15942 -0.26427 0.19285 -0.12266 -0.028384 0.0073439 0.11689 0.17767 -0.22341 0.15685 -0.042771 0.075467 0.2343 -0.069184 0.11728 0.01875 0.10073 0.054237 -0.09765 0.13824 0.14796 0.13275 -0.028563 -0.17258 0.052013 0.091568 0.046054 0.11799 0.024117 0.090008 0.1074 -0.20893 -0.014418 0.33786 -0.071483 0.17389 0.2398 0.3286 0.1106 -0.029626 0.14876 0.29328 0.12686 -0.194 0.077667 -0.024274 -0.038964 -0.084935 -0.11547 
和 0.19666 -0.19334 -0.10978 -0.15197 0.20284 0.25098 0.16107 -0.050707 0.19317 0.087925 0.11679 0.12944 0.017543 -0.18891 -0.23088 0.029691 -0.040591 -0.10641 0.005448 -0.12923 -0.10923 -0.013653 0.10473 -0.053689 -0.17544 -0.33683 -0.082439 0.047086 -0.3252 0.049948 -0.19404 -0.24961 -0.039343 0.17029 -0.24112 -0.31142 -0.17645 -0.11795 0.23101 0.11734 0.12445 0.29945 -0.24038 0.16528 0.15841 -0.12062 -0.34065 0.037834 -0.10807 -0.077681 -0.045583 -0.26169 -0.19272 0.03132 0.25847 -0.17841 -0.20608 -0.0013073 0.36422 0.032486 -0.51354 -0.1196 0.067688 0.26659 0.094766 -0.20162 0.19621 0.079293 -0.042297 -0.019871 -0.12097 0.026574 -0.1009 0.047332 -0.069259 0.12912 0.041407 0.0017778 0.046273 0.17355 0.0365 0.08525 0.10756 -0.048554 -0.06306 -0.061568 -0.0882 0.17829 -0.098756 -0.040652 0.10077 0.069196 0.23452 -0.010172 -0.26231 -0.10304 -0.10995 -0.048224 -0.068613 0.024513 0.022642 0.12115 0.078723 0.15484 0.016694 -0.057931 -0.0057714 -0.24458 0.1162 -0.25102 0.13072 -0.1348 -0.15886 -0.15803 0.09018 -0.067458 0.067228 -0.085378 -0.089838 0.097925 0.15038 0.051464 0.086263 0.055534 -0.14993 -0.14013 0.2633 0.10154 0.1883 0.036134 -0.087197 -0.090456 -0.30332 -0.036884 -0.05017 0.2178 -0.19702 -0.056784 0.05015 -0.0013561 0.050369 0.2253 -0.2239 -0.17655 0.22501 -0.27781 0.098685 0.011007 -0.15152 0.040532 -0.29506 -0.032029 -0.025719 0.16132 -0.11232 -0.026127 -0.12542 0.11935 0.015193 0.22383 0.15874 0.10792 -0.2086 0.10017 -0.18678 -0.11618 -0.021825 -0.19913 -0.24245 0.087471 -0.012383 0.14768 0.22776 0.23413 0.037977 -0.31818 0.11318 0.25319 0.40869 0.14104 -0.19442 -0.24606 -0.36356 0.4308 -0.22364 0.25591 0.074864 -0.28306 -0.013797 -0.033847 0.037649 0.056632 0.37362 -0.18675 -0.083185 0.073142 -0.066148 -0.11703 -0.16879 -0.13726 0.19677 -0.17174 0.059743 -0.17744 -0.18424 -0.085093 0.099685 0.14167 -0.093751 0.069298 -0.16935 0.27118 -0.0015627 -0.035792 -0.073245 0.16546 -0.40364 -0.10165 0.10442 0.22414 -0.020073 -0.26451 -0.07088 -0.34027 0.064038 -0.19877 -0.14658 -0.071824 -0.11784 0.040428 0.012653 -0.11971 0.024909 -0.055522 0.077722 -0.14622 -0.033563 0.14537 -0.14714 -0.067404 -0.19275 0.15042 0.12193 -0.06005 0.049649 0.11064 0.13243 0.017249 0.027757 0.21495 0.0072479 -0.18397 -0.30652 0.2275 -0.14507 -0.032542 0.0066327 0.13917 0.20663 -0.26035 0.18669 -0.047327 0.08777 0.27215 -0.082113 0.13642 0.020264 0.11773 0.063041 -0.11414 0.16472 0.17144 0.15503 -0.035047 -0.2004 0.060084 0.10182 0.052726 0.13809 0.031802 0.10148 0.12148 -0.24449 -0.015078 0.39407 -0.083202 0.20389 0.28256 0.38159 0.132 -0.034932 0.17161 0.3434 0.14491 -0.22628 0.092931 -0.025816 -0.041458 -0.096296 -0.13349 
将 0.26387 -0.25784 -0.146 -0.19773 0.27187 0.33513 0.21784 -0.069781 0.26248 0.11804 0.157 0.17263 0.025016 -0.25544 -0.30708 0.042045 -0.05869 -0.14024 0.0058018 -0.17278 -0.14945 -0.015349 0.13894 -0.074306 -0.23195 -0.45005 -0.11143 0.064723 -0.43211 0.069301 -0.25991 -0.33653 -0.049337 0.22747 -0.31994 -0.41136 -0.2365 -0.15637 0.30812 0.15285 0.16454 0.39763 -0.32003 0.22009 0.20771 -0.16066 -0.45792 0.048155 -0.14626 -0.10385 -0.061758 -0.35005 -0.25357 0.039163 0.34895 -0.23279 -0.27123 -0.0016762 0.4894 0.04259 -0.68121 -0.16347 0.08802 0.35638 0.12432 -0.26267 0.26478 0.10627 -0.055098 -0.024902 -0.16107 0.03722 -0.13603 0.065075 -0.090784 0.16566 0.056139 0.0040327 0.061428 0.23093 0.04902 0.11259 0.14309 -0.061702 -0.084926 -0.08502 -0.11692 0.23723 -0.13286 -0.051589 0.13197 0.093313 0.31395 -0.012882 -0.35197 -0.13717 -0.14464 -0.065094 -0.09412 0.036182 0.032814 0.15847 0.10056 0.20591 0.023347 -0.079765 -0.0083654 -0.32792 0.15579 -0.33573 0.17635 -0.17711 -0.21545 -0.21292 0.12156 -0.090474 0.088546 -0.12076 -0.12003 0.13194 0.20068 0.068763 0.11919 0.074038 -0.19915 -0.18653 0.35389 0.13272 0.25227 0.051333 -0.1172 -0.12392 -0.40859 -0.051345 -0.070527 0.28628 -0.26299 -0.080037 0.069284 -0.0057206 0.068376 0.30079 -0.29706 -0.23622 0.29912 -0.37151 0.12852 0.010994 -0.2017 0.055396 -0.39752 -0.045247 -0.032195 0.21588 -0.14781 -0.033396 -0.1685 0.15604 0.020217 0.29481 0.21455 0.14159 -0.27843 0.13492 -0.25353 -0.15393 -0.028777 -0.264 -0.32206 0.11682 -0.019733 0.19893 0.30412 0.3124 0.052774 -0.42435 0.15256 0.33948 0.54325 0.19111 -0.26248 -0.32837 -0.48528 0.57713 -0.29884 0.34355 0.09814 -0.37648 -0.017735 -0.043424 0.048931 0.077183 0.49616 -0.24627 -0.11544 0.094013 -0.088503 -0.15616 -0.22839 -0.1797 0.2624 -0.22747 0.078582 -0.23707 -0.24377 -0.11494 0.1334 0.1876 -0.12749 0.092147 -0.22769 0.36375 -0.0034481 -0.050535 -0.095129 0.21869 -0.54072 -0.13273 0.14266 0.29506 -0.026724 -0.35481 -0.095164 -0.45231 0.083437 -0.26798 -0.19775 -0.099453 -0.16105 0.054513 0.012919 -0.15566 0.032573 -0.07562 0.10253 -0.19291 -0.044696 0.19153 -0.19602 -0.089653 -0.25276 0.20221 0.16085 -0.079325 0.061943 0.14407 0.17729 0.02224 0.038075 0.29007 0.004056 -0.2455 -0.40791 0.3023 -0.18806 -0.045508 0.0082448 0.18263 0.27513 -0.34974 0.25106 -0.067321 0.11926 0.36339 -0.10562 0.18032 0.028748 0.15596 0.081327 -0.14823 0.21303 0.22736 0.20853 -0.050083 -0.26927 0.081049 0.13881 0.073533 0.18324 0.041259 0.13763 0.16518 -0.32512 -0.020649 0.52336 -0.11159 0.27303 0.3739 0.51109 0.17466 -0.04376 0.22771 0.45613 0.19764 -0.30286 0.12037 -0.034335 -0.058119 -0.12943 -0.17652 
月 0.21176 -0.21284 -0.11952 -0.16125 0.22275 0.27378 0.17916 -0.053177 0.21236 0.096632 0.12942 0.14081 0.020301 -0.20753 -0.25314 0.031995 -0.045498 -0.1181 0.0044434 -0.14125 -0.12152 -0.012839 0.11439 -0.060381 -0.18907 -0.36634 -0.091117 0.053536 -0.35166 0.058998 -0.21355 -0.27374 -0.042439 0.18574 -0.25977 -0.33665 -0.19362 -0.12955 0.25253 0.12212 0.13246 0.32621 -0.26303 0.18224 0.17269 -0.12823 -0.37291 0.038187 -0.11436 -0.082543 -0.051087 -0.28749 -0.20831 0.033719 0.28394 -0.19103 -0.22527 0.0011803 0.39621 0.036405 -0.55679 -0.13185 0.07236 0.28965 0.10348 -0.21457 0.21416 0.0867 -0.047613 -0.019364 -0.12722 0.02746 -0.11199 0.052429 -0.075496 0.14129 0.046772 0.002022 0.049719 0.19073 0.040319 0.094399 0.12152 -0.048411 -0.067065 -0.068774 -0.096643 0.19408 -0.10594 -0.044665 0.1069 0.077407 0.2566 -0.0079563 -0.28475 -0.11094 -0.12003 -0.051273 -0.076263 0.026448 0.023521 0.13312 0.085704 0.16808 0.017753 -0.065195 -0.0039098 -0.26696 0.12445 -0.27166 0.14396 -0.14778 -0.1733 -0.17385 0.099989 -0.072789 0.072785 -0.095612 -0.095244 0.10772 0.16153 0.053377 0.095121 0.060277 -0.16259 -0.15514 0.28665 0.11003 0.20756 0.042359 -0.098236 -0.10171 -0.33125 -0.040098 -0.053669 0.23372 -0.21426 -0.064165 0.056476 -0.005453 0.059585 0.24395 -0.24339 -0.19295 0.24337 -0.30127 0.10719 0.010558 -0.16444 0.047428 -0.32079 -0.03763 -0.024602 0.17551 -0.12179 -0.02539 -0.13751 0.1257 0.015019 0.24059 0.17341 0.11738 -0.23071 0.11014 -0.20403 -0.12825 -0.024701 -0.21594 -0.26502 0.09598 -0.014156 0.16342 0.24665 0.25588 0.041378 -0.34799 0.12617 0.27724 0.44392 0.15609 -0.21256 -0.26875 -0.39495 0.46857 -0.24213 0.27919 0.081243 -0.30736 -0.014044 -0.033789 0.041569 0.062404 0.40815 -0.20291 -0.093819 0.080199 -0.072051 -0.12687 -0.18631 -0.14846 0.21449 -0.18425 0.061878 -0.19595 -0.19958 -0.095622 0.10955 0.15347 -0.10469 0.07537 -0.18362 0.29718 -0.004094 -0.042059 -0.078502 0.17964 -0.44167 -0.10972 0.11607 0.24285 -0.023762 -0.28917 -0.077644 -0.36683 0.07062 -0.21745 -0.15976 -0.079807 -0.13117 0.04452 0.010334 -0.12782 0.0279 -0.063405 0.085302 -0.15744 -0.037568 0.15493 -0.16051 -0.076153 -0.20544 0.16395 0.131 -0.06579 0.054763 0.11705 0.14302 0.016318 0.027398 0.23509 0.0075623 -0.20146 -0.33214 0.24739 -0.15601 -0.033489 0.0057155 0.14964 0.22529 -0.28526 0.20445 -0.053793 0.095719 0.29797 -0.087671 0.14864 0.025188 0.12734 0.068791 -0.12029 0.17548 0.18357 0.16708 -0.038439 -0.217 0.063062 0.11013 0.060671 0.15001 0.032332 0.11034 0.13431 -0.26534 -0.016774 0.42581 -0.092302 0.22326 0.30707 0.42032 0.14067 -0.036775 0.18578 0.36942 0.16202 -0.24733 0.10249 -0.029648 -0.046024 -0.10564 -0.14183 
是 0.11623 -0.11602 -0.064118 -0.089801 0.11924 0.14612 0.095717 -0.030281 0.11506 0.051371 0.07035 0.073357 0.011302 -0.11245 -0.13492 0.016082 -0.02437 -0.061838 0.00060396 -0.07506 -0.065189 -0.0063541 0.060158 -0.031571 -0.10387 -0.19845 -0.049862 0.028275 -0.18891 0.029442 -0.11725 -0.14766 -0.022531 0.10031 -0.13919 -0.18491 -0.10378 -0.067665 0.13742 0.070675 0.07334 0.17715 -0.14411 0.098404 0.094419 -0.072443 -0.20263 0.02245 -0.062556 -0.045668 -0.026648 -0.15645 -0.11288 0.01756 0.15464 -0.10347 -0.12231 -0.0011211 0.21601 0.018827 -0.30321 -0.070305 0.039284 0.15781 0.059022 -0.11671 0.11781 0.045878 -0.028584 -0.012281 -0.070921 0.017149 -0.059983 0.029325 -0.038283 0.074898 0.024361 0.00065072 0.028315 0.10181 0.019787 0.046691 0.064015 -0.026984 -0.035811 -0.037139 -0.052194 0.10655 -0.059209 -0.024239 0.05779 0.039727 0.14206 -0.0056052 -0.15767 -0.057509 -0.064853 -0.02878 -0.04216 0.012355 0.012524 0.069319 0.043763 0.091731 0.010152 -0.03527 -0.00025181 -0.14591 0.068329 -0.14917 0.076748 -0.079914 -0.093646 -0.095644 0.05438 -0.039427 0.035819 -0.051127 -0.051746 0.057691 0.088436 0.02735 0.051771 0.034343 -0.090253 -0.084797 0.15752 0.060064 0.11078 0.025614 -0.05311 -0.053362 -0.18155 -0.020895 -0.028825 0.1283 -0.11882 -0.035881 0.032166 -7.8718e-05 0.030523 0.13149 -0.12849 -0.10533 0.13283 -0.16616 0.05999 0.0052267 -0.089865 0.022963 -0.17539 -0.018025 -0.014148 0.091654 -0.065596 -0.016059 -0.074797 0.06836 0.0092357 0.13181 0.093387 0.062552 -0.12579 0.060432 -0.11208 -0.066832 -0.012766 -0.11618 -0.14634 0.049277 -0.0090778 0.08807 0.13777 0.14022 0.023447 -0.18872 0.068412 0.14875 0.24324 0.08139 -0.11451 -0.14621 -0.21513 0.25651 -0.13235 0.15142 0.042542 -0.16648 -0.0085979 -0.017128 0.024477 0.031958 0.22193 -0.11258 -0.051244 0.044297 -0.040763 -0.068002 -0.10243 -0.079753 0.11889 -0.10301 0.033285 -0.10564 -0.10745 -0.050224 0.058227 0.082886 -0.05769 0.039665 -0.10136 0.16227 -0.0038939 -0.022153 -0.044562 0.099622 -0.23927 -0.059757 0.065315 0.13209 -0.011809 -0.15474 -0.043214 -0.20309 0.038263 -0.11824 -0.084664 -0.042226 -0.068563 0.024682 0.006197 -0.068755 0.014567 -0.032529 0.045604 -0.084967 -0.019152 0.083939 -0.086886 -0.041439 -0.11114 0.09131 0.070214 -0.035273 0.028636 0.063543 0.078257 0.0090655 0.015467 0.1258 0.0051623 -0.10787 -0.18311 0.13315 -0.084598 -0.021044 0.0050285 0.082941 0.1207 -0.15582 0.11209 -0.030485 0.054805 0.16241 -0.045249 0.081164 0.012074 0.069931 0.037969 -0.066466 0.096383 0.10317 0.093802 -0.02107 -0.11883 0.032361 0.061723 0.03426 0.083316 0.019994 0.059311 0.073476 -0.14395 -0.0083424 0.23088 -0.048518 0.12045 0.16504 0.2282 0.079261 -0.021711 0.099901 0.19999 0.084718 -0.13377 0.05255 -0.014574 -0.027679 -0.054708 -0.079461 
对 0.21489 -0.21151 -0.11908 -0.1633 0.2189 0.27395 0.1784 -0.05549 0.21291 0.096569 0.13105 0.13932 0.018113 -0.20714 -0.24762 0.034037 -0.048993 -0.11729 0.00326 -0.13919 -0.12018 -0.011196 0.1117 -0.059766 -0.18822 -0.36558 -0.094121 0.049534 -0.35159 0.054548 -0.21198 -0.27169 -0.041115 0.18503 -0.26185 -0.33811 -0.19234 -0.12391 0.25092 0.12449 0.13489 0.32348 -0.26117 0.18028 0.17105 -0.12769 -0.37095 0.041508 -0.11819 -0.082694 -0.048662 -0.28631 -0.20805 0.032473 0.28118 -0.19074 -0.22195 0.00091712 0.39953 0.035719 -0.5593 -0.13259 0.070554 0.29062 0.10403 -0.21483 0.2145 0.087613 -0.048669 -0.021659 -0.13242 0.027627 -0.1093 0.052679 -0.075946 0.13702 0.045309 -0.0014246 0.052974 0.18581 0.040836 0.091692 0.1189 -0.052391 -0.068631 -0.071961 -0.097889 0.19426 -0.10466 -0.042843 0.10462 0.075333 0.26035 -0.01044 -0.28609 -0.11224 -0.11792 -0.052547 -0.07842 0.02641 0.025103 0.12818 0.082333 0.16705 0.020677 -0.064138 -0.0039328 -0.26571 0.12405 -0.27349 0.14482 -0.14598 -0.17238 -0.17369 0.099425 -0.073002 0.072878 -0.095574 -0.095063 0.10421 0.16395 0.055455 0.095391 0.063425 -0.16429 -0.15379 0.28709 0.10822 0.20935 0.041014 -0.098386 -0.099429 -0.33613 -0.040574 -0.054981 0.23547 -0.21422 -0.065639 0.056016 -0.0027618 0.05813 0.24533 -0.24067 -0.19463 0.24265 -0.30353 0.10887 0.009819 -0.16619 0.047327 -0.32379 -0.036111 -0.030696 0.17279 -0.12554 -0.027704 -0.1342 0.12877 0.014701 0.24226 0.17151 0.11812 -0.2288 0.10947 -0.2019 -0.12388 -0.023427 -0.2154 -0.26476 0.092958 -0.015533 0.15974 0.25091 0.25305 0.042679 -0.34978 0.12294 0.27873 0.448 0.15582 -0.21417 -0.26989 -0.39838 0.46855 -0.24386 0.28084 0.081522 -0.30416 -0.013702 -0.034439 0.039204 0.06226 0.40892 -0.20104 -0.091061 0.078735 -0.074414 -0.12639 -0.18839 -0.14591 0.21592 -0.18824 0.064259 -0.19668 -0.19835 -0.093814 0.10713 0.15566 -0.10441 0.075084 -0.18611 0.2957 -0.00050032 -0.03938 -0.07741 0.17973 -0.4374 -0.11077 0.11437 0.24306 -0.024105 -0.29231 -0.078007 -0.36814 0.070093 -0.21695 -0.15958 -0.081178 -0.12981 0.044106 0.012362 -0.13105 0.026235 -0.05994 0.080426 -0.15658 -0.03457 0.15616 -0.16177 -0.077252 -0.20963 0.16537 0.13136 -0.065674 0.054818 0.11749 0.14313 0.014072 0.028605 0.23554 0.0078643 -0.20083 -0.33079 0.24703 -0.15603 -0.035528 0.007469 0.14922 0.22392 -0.28576 0.20409 -0.055407 0.097626 0.29726 -0.087711 0.14833 0.027043 0.12928 0.068891 -0.12445 0.17643 0.18447 0.16747 -0.041352 -0.21672 0.063656 0.11198 0.059469 0.15068 0.032228 0.11309 0.13086 -0.26683 -0.018889 0.42493 -0.0887 0.22389 0.30366 0.41956 0.14368 -0.038325 0.18626 0.37454 0.15885 -0.24335 0.10206 -0.029209 -0.044556 -0.10737 -0.14454 
“ 0.18599 -0.18635 -0.10239 -0.14382 0.19282 0.2396 0.15548 -0.047106 0.18585 0.085765 0.11339 0.12235 0.017536 -0.18015 -0.21799 0.029839 -0.038823 -0.10286 0.0015101 -0.12195 -0.10777 -0.011714 0.098196 -0.053387 -0.16753 -0.3181 -0.080806 0.043614 -0.30924 0.047863 -0.18258 -0.23919 -0.036835 0.16191 -0.22863 -0.29294 -0.16935 -0.11095 0.21708 0.10869 0.11666 0.28107 -0.22692 0.15488 0.15017 -0.11131 -0.3243 0.034514 -0.10112 -0.071049 -0.04234 -0.24794 -0.18326 0.030603 0.24646 -0.1676 -0.19569 0.0010821 0.34511 0.027662 -0.48481 -0.11463 0.06326 0.25272 0.091305 -0.19035 0.1835 0.076664 -0.042129 -0.021091 -0.1143 0.02719 -0.09645 0.046372 -0.063145 0.12248 0.039583 -0.00075277 0.044484 0.16588 0.037602 0.081681 0.10428 -0.045092 -0.061219 -0.063095 -0.083374 0.16747 -0.094235 -0.036949 0.094372 0.06372 0.22247 -0.0070802 -0.24896 -0.095508 -0.10365 -0.045496 -0.067329 0.026246 0.020807 0.11358 0.072638 0.14647 0.014507 -0.054074 -0.0050969 -0.23076 0.10852 -0.239 0.12659 -0.12702 -0.15332 -0.14887 0.086799 -0.063679 0.062153 -0.084424 -0.082946 0.090658 0.144 0.049276 0.083301 0.053502 -0.1436 -0.13447 0.24966 0.096344 0.17839 0.035858 -0.084499 -0.08759 -0.28983 -0.035289 -0.048819 0.20583 -0.18402 -0.054721 0.049172 -0.0052458 0.052229 0.2139 -0.21063 -0.16579 0.21436 -0.26076 0.090138 0.0091819 -0.14328 0.041136 -0.27958 -0.034133 -0.024648 0.15073 -0.10569 -0.025245 -0.11933 0.11145 0.014082 0.21048 0.15275 0.10279 -0.19825 0.093866 -0.17835 -0.11065 -0.019731 -0.19011 -0.2304 0.082035 -0.012369 0.14015 0.21585 0.22437 0.038536 -0.3006 0.11114 0.24016 0.388 0.13544 -0.18864 -0.2357 -0.34671 0.40892 -0.21008 0.24398 0.072552 -0.26865 -0.012743 -0.030355 0.03489 0.055979 0.35391 -0.17638 -0.082127 0.06701 -0.063131 -0.10741 -0.16286 -0.12696 0.18667 -0.16179 0.05376 -0.17123 -0.17244 -0.083378 0.092504 0.13357 -0.090446 0.066148 -0.15941 0.25873 -0.00089325 -0.03483 -0.072006 0.1547 -0.38249 -0.097345 0.099469 0.21186 -0.017024 -0.25227 -0.065401 -0.32217 0.059047 -0.19185 -0.13972 -0.069791 -0.11249 0.040787 0.0097159 -0.11064 0.022259 -0.051688 0.072907 -0.13864 -0.029889 0.13431 -0.14158 -0.063239 -0.18122 0.14246 0.11507 -0.056685 0.044733 0.10193 0.12595 0.013673 0.023734 0.20767 0.0053496 -0.17495 -0.2889 0.21327 -0.13625 -0.032455 0.0065403 0.13323 0.19432 -0.24832 0.17738 -0.045235 0.085007 0.25887 -0.078049 0.12993 0.02011 0.10904 0.060909 -0.10766 0.1558 0.16358 0.14662 -0.033372 -0.19052 0.05437 0.098432 0.051233 0.12969 0.027457 0.1002 0.11826 -0.23007 -0.017159 0.37101 -0.079813 0.19488 0.26515 0.36306 0.12394 -0.031205 0.16082 0.32334 0.13903 -0.21406 0.085809 -0.026012 -0.039136 -0.093225 -0.12574 
” 0.17859 -0.17707 -0.098469 -0.14021 0.18662 0.23239 0.15059 -0.046982 0.18124 0.081531 0.1121 0.12053 0.017102 -0.17584 -0.21212 0.025133 -0.039898 -0.096501 0.0012179 -0.11911 -0.10158 -0.011881 0.095372 -0.052145 -0.1621 -0.31069 -0.077171 0.04753 -0.29893 0.047391 -0.18028 -0.23165 -0.03628 0.15917 -0.2202 -0.28416 -0.16163 -0.10687 0.21369 0.1035 0.11576 0.27701 -0.22278 0.15258 0.14563 -0.10955 -0.31535 0.034195 -0.099895 -0.070079 -0.04396 -0.2412 -0.17637 0.028221 0.24199 -0.162 -0.18771 -0.00067659 0.33682 0.028739 -0.47452 -0.11253 0.061085 0.24792 0.08836 -0.18251 0.18234 0.075625 -0.040718 -0.019058 -0.10938 0.025623 -0.09429 0.043175 -0.064374 0.11454 0.037338 0.0020579 0.041884 0.16227 0.033518 0.080042 0.099727 -0.044837 -0.054834 -0.060202 -0.081248 0.16639 -0.093637 -0.037242 0.087964 0.064409 0.21949 -0.007664 -0.24368 -0.09447 -0.099938 -0.046226 -0.061238 0.025606 0.0232 0.11089 0.07038 0.14358 0.018195 -0.054288 -0.0028061 -0.22506 0.10905 -0.23227 0.12287 -0.12418 -0.14785 -0.14562 0.083753 -0.062632 0.059565 -0.081773 -0.080488 0.092538 0.13935 0.047688 0.082981 0.05172 -0.14166 -0.12764 0.24253 0.093426 0.17404 0.035499 -0.08336 -0.081782 -0.28466 -0.034035 -0.045874 0.19884 -0.18052 -0.057645 0.046653 -0.00087568 0.047653 0.20651 -0.20314 -0.16285 0.20698 -0.25795 0.088956 0.0097152 -0.1384 0.039167 -0.27388 -0.031441 -0.021274 0.14708 -0.10429 -0.024028 -0.11603 0.10723 0.014005 0.20634 0.14765 0.10082 -0.19524 0.089437 -0.173 -0.10541 -0.021881 -0.18405 -0.22255 0.082511 -0.010571 0.13741 0.21239 0.21841 0.035825 -0.29695 0.10829 0.23618 0.37801 0.13219 -0.1836 -0.22927 -0.33593 0.39815 -0.20646 0.23923 0.06993 -0.26169 -0.012061 -0.030587 0.034264 0.051172 0.34613 -0.17287 -0.077576 0.064628 -0.060566 -0.10594 -0.15745 -0.12249 0.18127 -0.15809 0.054035 -0.16722 -0.16979 -0.08219 0.090921 0.13136 -0.08859 0.06449 -0.15698 0.25277 -0.0017506 -0.037147 -0.0669 0.1502 -0.3726 -0.093743 0.099598 0.20634 -0.018721 -0.24407 -0.065072 -0.31027 0.060109 -0.18571 -0.13351 -0.069448 -0.10935 0.037694 0.0091737 -0.10648 0.02336 -0.051801 0.069057 -0.13181 -0.03167 0.13139 -0.13701 -0.061747 -0.17569 0.13784 0.11343 -0.055882 0.046971 0.099581 0.12289 0.014118 0.025727 0.20035 0.0046864 -0.16922 -0.28264 0.20803 -0.13035 -0.031395 0.0079972 0.12874 0.19048 -0.24144 0.17196 -0.044906 0.084676 0.24908 -0.0743 0.1273 0.019264 0.10712 0.057935 -0.10346 0.14764 0.15677 0.14415 -0.032035 -0.18768 0.055663 0.09571 0.050811 0.12643 0.029985 0.095897 0.11309 -0.22724 -0.013884 0.36046 -0.077877 0.18631 0.25921 0.35398 0.12124 -0.031488 0.1581 0.31418 0.1322 -0.20935 0.08415 -0.02585 -0.039519 -0.090102 -0.122 
日 0.15442 -0.15696 -0.086386 -0.11953 0.16442 0.20316 0.13083 -0.042237 0.15931 0.071919 0.097086 0.10279 0.015045 -0.15508 -0.186 0.025272 -0.033116 -0.087499 0.0059359 -0.10384 -0.089404 -0.0071603 0.083173 -0.042715 -0.14347 -0.27039 -0.068409 0.039553 -0.26218 0.04089 -0.15387 -0.20041 -0.031175 0.13675 -0.19426 -0.24767 -0.14091 -0.095207 0.18638 0.092919 0.099279 0.23787 -0.19613 0.13105 0.12688 -0.097371 -0.27369 0.03178 -0.087676 -0.062767 -0.039362 -0.21331 -0.15314 0.02558 0.20928 -0.13955 -0.16706 -0.0021826 0.29422 0.024166 -0.41459 -0.098335 0.053143 0.21643 0.075829 -0.16121 0.15596 0.06407 -0.034136 -0.016856 -0.096113 0.021609 -0.080613 0.03899 -0.054467 0.099822 0.032118 -0.0015039 0.039047 0.14106 0.030063 0.06974 0.088183 -0.037349 -0.049912 -0.051072 -0.072619 0.14246 -0.079764 -0.031271 0.081647 0.053709 0.19036 -0.008729 -0.21276 -0.078997 -0.089266 -0.038119 -0.052628 0.02063 0.017047 0.094551 0.062801 0.12282 0.015217 -0.045881 -0.0055995 -0.19914 0.090718 -0.20053 0.10674 -0.11178 -0.12693 -0.1296 0.074284 -0.057463 0.051425 -0.072067 -0.070056 0.077075 0.11897 0.039361 0.072045 0.044277 -0.11852 -0.11364 0.2121 0.080455 0.15383 0.028967 -0.072281 -0.076077 -0.24786 -0.031312 -0.040714 0.17265 -0.15816 -0.049253 0.040106 -0.0030433 0.042182 0.18075 -0.18248 -0.1413 0.17864 -0.22534 0.079603 0.0071326 -0.1183 0.033183 -0.23936 -0.027287 -0.018106 0.12914 -0.091854 -0.022171 -0.10059 0.095587 0.0093422 0.17883 0.12562 0.08729 -0.16817 0.080317 -0.1515 -0.090406 -0.019168 -0.15867 -0.19736 0.071319 -0.011681 0.11964 0.18571 0.18802 0.030336 -0.25849 0.094542 0.20381 0.32936 0.115 -0.15826 -0.20079 -0.29354 0.34689 -0.18169 0.20671 0.057499 -0.22402 -0.007435 -0.026353 0.033155 0.045341 0.30378 -0.14934 -0.067319 0.05696 -0.055402 -0.095996 -0.1408 -0.10816 0.15808 -0.13768 0.047416 -0.14519 -0.14803 -0.071213 0.080758 0.11357 -0.075609 0.057702 -0.13522 0.21732 -0.00069251 -0.030278 -0.058603 0.13253 -0.32456 -0.082454 0.087321 0.17885 -0.013997 -0.21276 -0.057311 -0.27134 0.05108 -0.16078 -0.1173 -0.057582 -0.098834 0.033526 0.0084228 -0.096514 0.017197 -0.043732 0.061977 -0.11725 -0.025314 0.11511 -0.11863 -0.056229 -0.1547 0.12082 0.097948 -0.050525 0.037073 0.086492 0.10485 0.013855 0.020891 0.17467 0.0017388 -0.14881 -0.24738 0.18427 -0.11546 -0.028102 0.0040757 0.11044 0.16486 -0.21237 0.14817 -0.038855 0.070926 0.22173 -0.065364 0.11111 0.019227 0.094093 0.050783 -0.091039 0.12692 0.13743 0.12506 -0.029779 -0.16462 0.047312 0.081636 0.044209 0.11114 0.022154 0.082148 0.098778 -0.19787 -0.011785 0.31307 -0.069508 0.1647 0.22438 0.30992 0.10427 -0.028567 0.13955 0.27261 0.12082 -0.18017 0.072426 -0.021957 -0.033524 -0.077288 -0.10502 
《 0.16201 -0.15833 -0.090262 -0.12316 0.16511 0.20394 0.13341 -0.04208 0.16213 0.072792 0.10015 0.10573 0.012931 -0.15453 -0.18657 0.021272 -0.036823 -0.087622 0.0017253 -0.10639 -0.093164 -0.0074331 0.08201 -0.043096 -0.14303 -0.27518 -0.069529 0.039152 -0.26674 0.044615 -0.15748 -0.2053 -0.032518 0.13923 -0.1978 -0.2543 -0.14549 -0.098005 0.18827 0.093701 0.1022 0.24416 -0.19845 0.13643 0.13255 -0.097296 -0.28277 0.030256 -0.089159 -0.063415 -0.041086 -0.21274 -0.15837 0.024697 0.21531 -0.14658 -0.16959 -0.00072115 0.29879 0.024006 -0.42076 -0.098193 0.055776 0.21932 0.080154 -0.16262 0.16359 0.066956 -0.035395 -0.017342 -0.098917 0.024675 -0.084638 0.039137 -0.0582 0.10342 0.035861 0.002097 0.037751 0.14222 0.02777 0.070216 0.091081 -0.036604 -0.050357 -0.055671 -0.072187 0.14501 -0.082689 -0.032816 0.079251 0.056146 0.19362 -0.0056377 -0.21383 -0.082952 -0.089251 -0.038457 -0.056821 0.022324 0.019278 0.09649 0.062526 0.12683 0.013654 -0.051473 -0.0056973 -0.19979 0.093968 -0.20859 0.10713 -0.10947 -0.12922 -0.12958 0.0732 -0.053288 0.054833 -0.074327 -0.072577 0.082204 0.12306 0.042038 0.074517 0.048113 -0.12516 -0.11522 0.21816 0.084014 0.15577 0.033318 -0.075182 -0.075804 -0.25272 -0.029079 -0.040154 0.18001 -0.16358 -0.048911 0.041693 -0.0039454 0.044032 0.18172 -0.18226 -0.14229 0.18294 -0.22962 0.07996 0.010034 -0.1233 0.036514 -0.24495 -0.027944 -0.023287 0.13107 -0.091736 -0.018031 -0.10048 0.097274 0.011799 0.18061 0.13154 0.088037 -0.172 0.082355 -0.15326 -0.092748 -0.01663 -0.16413 -0.19932 0.072688 -0.011471 0.12482 0.18653 0.19168 0.031079 -0.26089 0.096498 0.20662 0.33543 0.11615 -0.161 -0.19975 -0.29851 0.35159 -0.18223 0.21174 0.062292 -0.22847 -0.011573 -0.024527 0.031418 0.047807 0.30535 -0.15076 -0.069484 0.05782 -0.055311 -0.097022 -0.14046 -0.10944 0.16108 -0.1374 0.051166 -0.14623 -0.15257 -0.072187 0.080936 0.11592 -0.077438 0.05719 -0.14002 0.22279 -0.0011032 -0.0289 -0.060881 0.13334 -0.33319 -0.080871 0.087494 0.18006 -0.01695 -0.22123 -0.05769 -0.27766 0.052103 -0.16177 -0.12043 -0.060327 -0.0987 0.034437 0.0072672 -0.097612 0.019247 -0.044979 0.063796 -0.11714 -0.025936 0.11479 -0.11953 -0.058508 -0.15718 0.12428 0.10011 -0.049762 0.040175 0.090449 0.10798 0.014895 0.020829 0.17469 0.0046193 -0.15295 -0.25212 0.18394 -0.11798 -0.026118 0.0052945 0.11442 0.172 -0.21388 0.15135 -0.038578 0.069511 0.22258 -0.062365 0.11297 0.017909 0.092781 0.054162 -0.093457 0.13425 0.13976 0.12828 -0.030511 -0.16461 0.049542 0.083281 0.046102 0.11293 0.022493 0.083528 0.10239 -0.19881 -0.014383 0.32093 -0.070431 0.1669 0.22743 0.31432 0.10882 -0.026404 0.141 0.27644 0.12074 -0.1845 0.075235 -0.019323 -0.035462 -0.077418 -0.10987 
》 0.11642 -0.11683 -0.066291 -0.089444 0.12465 0.1521 0.099144 -0.031934 0.11886 0.053787 0.070142 0.076554 0.012551 -0.11722 -0.1391 0.017705 -0.025114 -0.065414 0.0029328 -0.078482 -0.069498 -0.0053797 0.063435 -0.03218 -0.10567 -0.20445 -0.051093 0.030883 -0.19579 0.032772 -0.11828 -0.15442 -0.023943 0.10153 -0.14873 -0.18848 -0.1075 -0.072831 0.14251 0.069376 0.073708 0.18342 -0.14468 0.099712 0.097319 -0.070042 -0.20683 0.022819 -0.065047 -0.048446 -0.029369 -0.15916 -0.11682 0.019275 0.15908 -0.1069 -0.12684 0.0024618 0.22383 0.019819 -0.31196 -0.074422 0.039451 0.15958 0.055166 -0.11996 0.11678 0.051023 -0.029418 -0.012856 -0.073644 0.016134 -0.062248 0.026159 -0.043895 0.078722 0.023805 0.0034403 0.030318 0.10664 0.02191 0.050852 0.06548 -0.028717 -0.041359 -0.039679 -0.051567 0.10859 -0.058697 -0.021926 0.061539 0.042027 0.14521 -0.0052882 -0.1594 -0.05927 -0.064326 -0.032365 -0.041146 0.017243 0.014782 0.071063 0.048384 0.094582 0.010088 -0.038672 -0.0045813 -0.14888 0.070719 -0.15296 0.079492 -0.081396 -0.098459 -0.094415 0.053202 -0.039888 0.038762 -0.051979 -0.056121 0.058093 0.091416 0.030302 0.053966 0.034461 -0.091231 -0.085217 0.15734 0.062952 0.11652 0.02362 -0.052371 -0.055107 -0.18672 -0.022602 -0.02807 0.13091 -0.1176 -0.036835 0.032666 -0.0035446 0.034794 0.13825 -0.1361 -0.10824 0.13598 -0.16649 0.059031 0.0076045 -0.089239 0.025741 -0.18117 -0.021403 -0.015636 0.096302 -0.068237 -0.015281 -0.07392 0.070463 0.0098221 0.13135 0.098893 0.065817 -0.12576 0.060371 -0.11391 -0.069331 -0.01419 -0.12133 -0.14755 0.056179 -0.0066721 0.088943 0.13627 0.14206 0.023113 -0.19158 0.067917 0.15224 0.24848 0.085832 -0.11558 -0.14782 -0.22104 0.26178 -0.137 0.15495 0.045835 -0.1692 -0.0050106 -0.018032 0.022073 0.036303 0.22693 -0.11213 -0.051873 0.041564 -0.038675 -0.070902 -0.10583 -0.082257 0.11859 -0.10477 0.036315 -0.10704 -0.11061 -0.05116 0.059673 0.08645 -0.056739 0.043512 -0.10183 0.16553 -0.00045679 -0.021577 -0.04284 0.099471 -0.24415 -0.062195 0.064396 0.13365 -0.011248 -0.1632 -0.041949 -0.20621 0.039289 -0.12032 -0.090407 -0.044168 -0.072986 0.028281 0.0058653 -0.074439 0.015354 -0.032909 0.045275 -0.08523 -0.020369 0.085393 -0.08759 -0.040745 -0.11347 0.091873 0.07376 -0.033971 0.031851 0.063427 0.079768 0.0089479 0.014489 0.13201 0.0039533 -0.11457 -0.1869 0.13942 -0.088216 -0.019033 0.0013702 0.084017 0.12379 -0.15892 0.11546 -0.029448 0.051472 0.16718 -0.049702 0.083881 0.013476 0.069407 0.035598 -0.070025 0.099755 0.10532 0.09373 -0.021035 -0.12159 0.036651 0.065158 0.03108 0.084375 0.018403 0.061361 0.075725 -0.14904 -0.012609 0.23655 -0.052436 0.12377 0.17142 0.23157 0.081777 -0.019992 0.10584 0.20421 0.088881 -0.13753 0.05491 -0.017825 -0.025303 -0.05583 -0.081295 
报道 0.13427 -0.13417 -0.075825 -0.10499 0.13993 0.17549 0.11375 -0.033893 0.13693 0.061865 0.082831 0.087014 0.013468 -0.13342 -0.15836 0.021154 -0.029911 -0.075392 0.0022993 -0.088671 -0.07833 -0.0093293 0.072911 -0.037103 -0.12179 -0.23411 -0.059046 0.032633 -0.22397 0.035601 -0.13664 -0.17344 -0.027382 0.11868 -0.16774 -0.21457 -0.12135 -0.081009 0.16137 0.079486 0.085965 0.20775 -0.16836 0.1158 0.11053 -0.084368 -0.23908 0.027062 -0.073205 -0.053996 -0.033803 -0.18294 -0.13364 0.021608 0.18152 -0.12182 -0.14385 -0.0010833 0.25281 0.021515 -0.3564 -0.0861 0.046297 0.18476 0.065541 -0.13887 0.13719 0.056953 -0.030441 -0.015128 -0.083914 0.020563 -0.071055 0.033653 -0.04811 0.089768 0.02882 0.0014906 0.031836 0.1189 0.025151 0.058467 0.075482 -0.031394 -0.045746 -0.044433 -0.061156 0.1236 -0.068355 -0.025733 0.067064 0.048804 0.16582 -0.0057734 -0.18246 -0.070495 -0.075313 -0.032845 -0.04817 0.018414 0.016159 0.08378 0.051849 0.10606 0.012463 -0.042131 -0.0036374 -0.16957 0.081125 -0.17536 0.092126 -0.09468 -0.11109 -0.10944 0.065163 -0.046697 0.043701 -0.061903 -0.062117 0.067155 0.10363 0.034322 0.061912 0.038378 -0.1058 -0.097456 0.18575 0.070646 0.13223 0.025027 -0.061737 -0.06473 -0.21302 -0.026737 -0.034335 0.15087 -0.13565 -0.041726 0.035289 -0.0037517 0.037409 0.15527 -0.15343 -0.1222 0.15598 -0.19549 0.066526 0.0086172 -0.10543 0.028788 -0.20557 -0.025344 -0.016806 0.11052 -0.078916 -0.017557 -0.08707 0.079574 0.0090426 0.15534 0.11163 0.074447 -0.14651 0.069786 -0.13139 -0.079714 -0.01603 -0.13704 -0.16781 0.05852 -0.0095463 0.10343 0.1583 0.16085 0.025255 -0.2217 0.081865 0.1754 0.2847 0.098964 -0.13672 -0.1704 -0.253 0.29871 -0.1566 0.17872 0.051219 -0.1958 -0.0096111 -0.024554 0.025144 0.039815 0.26068 -0.13051 -0.059289 0.048793 -0.048125 -0.080925 -0.11917 -0.092925 0.13662 -0.11802 0.040933 -0.12434 -0.12873 -0.062521 0.068048 0.099689 -0.064956 0.046551 -0.11719 0.19017 -0.0015532 -0.025186 -0.049049 0.11415 -0.28235 -0.070835 0.072091 0.15501 -0.014341 -0.18643 -0.049722 -0.23401 0.043838 -0.13823 -0.10129 -0.050853 -0.082889 0.027581 0.0053852 -0.081602 0.015949 -0.040018 0.051835 -0.099745 -0.022822 0.098681 -0.10206 -0.04582 -0.13366 0.10399 0.085609 -0.04231 0.033175 0.076847 0.092885 0.008663 0.017272 0.15024 0.0039086 -0.12848 -0.2121 0.15726 -0.09812 -0.022904 0.0056617 0.09593 0.14425 -0.18299 0.1302 -0.032797 0.061947 0.18993 -0.056822 0.096013 0.015136 0.080726 0.044064 -0.079212 0.11173 0.11949 0.10904 -0.025197 -0.13867 0.040831 0.072372 0.038833 0.093563 0.021328 0.071734 0.084124 -0.16981 -0.010842 0.27212 -0.056983 0.14111 0.19337 0.26678 0.092432 -0.023064 0.11926 0.2358 0.10163 -0.15611 0.065304 -0.018186 -0.030121 -0.066735 -0.090571 
： 0.10096 -0.10079 -0.054914 -0.077925 0.10279 0.13031 0.083694 -0.027465 0.1013 0.047212 0.062868 0.066522 0.012453 -0.099009 -0.11849 0.015456 -0.02154 -0.054665 0.0003792 -0.067123 -0.056181 -0.0069355 0.05307 -0.028167 -0.086788 -0.17365 -0.040319 0.023096 -0.16492 0.024596 -0.098972 -0.12623 -0.018245 0.089308 -0.12258 -0.15825 -0.088872 -0.059898 0.1196 0.061802 0.064758 0.15383 -0.12237 0.082362 0.080399 -0.060318 -0.17661 0.017686 -0.053871 -0.038058 -0.022054 -0.13545 -0.098357 0.017048 0.13352 -0.088241 -0.10316 -0.0020315 0.18768 0.017723 -0.26262 -0.060199 0.035186 0.13904 0.048645 -0.10333 0.10242 0.042147 -0.019393 -0.0097582 -0.061269 0.013186 -0.054344 0.024138 -0.037096 0.065229 0.019411 -0.001523 0.020652 0.090094 0.020769 0.043389 0.056794 -0.0208 -0.033183 -0.034805 -0.043885 0.091624 -0.052545 -0.020032 0.05138 0.033645 0.11979 -0.0060846 -0.1368 -0.051255 -0.054162 -0.024839 -0.033592 0.013076 0.011897 0.062507 0.037974 0.081478 0.0089444 -0.030472 -0.0031065 -0.12596 0.056928 -0.13039 0.06933 -0.066788 -0.081283 -0.079647 0.046704 -0.034901 0.032513 -0.045194 -0.04458 0.051834 0.075421 0.025467 0.045779 0.031168 -0.075871 -0.074512 0.13539 0.049069 0.096939 0.019322 -0.044004 -0.048444 -0.15608 -0.018254 -0.02765 0.11265 -0.1029 -0.030096 0.026378 -0.0028887 0.024453 0.11463 -0.11473 -0.091831 0.11425 -0.14335 0.04982 0.003753 -0.077703 0.023617 -0.15348 -0.016465 -0.01198 0.081956 -0.057994 -0.011985 -0.06463 0.060738 0.0074928 0.11366 0.080304 0.056071 -0.10757 0.050318 -0.096439 -0.058075 -0.011707 -0.10197 -0.12545 0.045353 -0.0038453 0.078527 0.12059 0.11913 0.01969 -0.16249 0.059121 0.12909 0.21168 0.071537 -0.10142 -0.12573 -0.18587 0.22127 -0.112 0.13248 0.037676 -0.14394 -0.0055189 -0.017766 0.020136 0.027685 0.19418 -0.096116 -0.043852 0.03801 -0.034301 -0.060068 -0.089103 -0.070232 0.1003 -0.086553 0.027896 -0.092224 -0.096644 -0.045046 0.050235 0.071088 -0.049309 0.03572 -0.088021 0.14095 5.4105e-05 -0.019283 -0.036758 0.083722 -0.20726 -0.052245 0.056944 0.11259 -0.0098666 -0.13653 -0.035291 -0.17323 0.032682 -0.10195 -0.075002 -0.039391 -0.060143 0.020301 0.0047795 -0.060013 0.01243 -0.030155 0.041422 -0.07354 -0.016377 0.074964 -0.07702 -0.035398 -0.097523 0.077418 0.060317 -0.030978 0.02616 0.055733 0.067619 0.0090069 0.015256 0.11191 0.0037975 -0.094591 -0.15741 0.11901 -0.073119 -0.016905 0.0049812 0.073429 0.10564 -0.13513 0.095587 -0.024016 0.047369 0.13999 -0.041796 0.069654 0.010828 0.061334 0.030154 -0.06005 0.081875 0.086072 0.077908 -0.020293 -0.105 0.028469 0.052925 0.028728 0.068128 0.013354 0.054067 0.061995 -0.12463 -0.0092881 0.20055 -0.041129 0.10499 0.143 0.19757 0.065693 -0.018312 0.08879 0.17516 0.074589 -0.11674 0.045387 -0.013751 -0.023759 -0.048477 -0.068324 
为 0.15728 -0.15426 -0.08469 -0.11525 0.1612 0.19823 0.1281 -0.039503 0.15607 0.068846 0.092505 0.10307 0.016514 -0.15064 -0.17999 0.021952 -0.035827 -0.081277 0.0028253 -0.10157 -0.088659 -0.0089896 0.083005 -0.044795 -0.13735 -0.26645 -0.06659 0.037368 -0.25624 0.039812 -0.15516 -0.19988 -0.029974 0.13794 -0.18719 -0.24402 -0.13768 -0.093797 0.18037 0.091219 0.097113 0.23766 -0.18834 0.1286 0.12635 -0.094226 -0.26779 0.030016 -0.083647 -0.059474 -0.037187 -0.20596 -0.14995 0.023933 0.20606 -0.13983 -0.15871 0.00023211 0.28683 0.02387 -0.4062 -0.098407 0.052164 0.21136 0.073206 -0.15594 0.15439 0.061436 -0.033031 -0.017897 -0.092682 0.020146 -0.081696 0.036155 -0.051681 0.10081 0.03498 0.00015632 0.035057 0.13556 0.031919 0.065627 0.085233 -0.0366 -0.047444 -0.053271 -0.070583 0.14024 -0.079489 -0.033064 0.076101 0.053429 0.18877 -0.0078498 -0.20849 -0.078885 -0.088557 -0.040849 -0.055558 0.021532 0.019563 0.097236 0.06091 0.12043 0.011663 -0.044595 -0.0049235 -0.19139 0.090978 -0.19808 0.10638 -0.10692 -0.12916 -0.12588 0.070177 -0.054783 0.052846 -0.072415 -0.068631 0.07767 0.11558 0.037203 0.068956 0.044553 -0.11725 -0.10873 0.20762 0.077977 0.15137 0.028872 -0.067971 -0.073193 -0.24339 -0.029375 -0.040705 0.16947 -0.15548 -0.04708 0.039212 -0.0010543 0.043244 0.17548 -0.17904 -0.13921 0.17772 -0.2182 0.078081 0.0085958 -0.11819 0.033793 -0.23767 -0.025636 -0.019777 0.12674 -0.089926 -0.019735 -0.097247 0.091317 0.010937 0.17384 0.12842 0.085063 -0.16481 0.080671 -0.14814 -0.092564 -0.015232 -0.15558 -0.19334 0.068092 -0.012477 0.11623 0.18335 0.18227 0.030805 -0.25116 0.094164 0.20021 0.32057 0.11337 -0.15227 -0.19716 -0.28957 0.34106 -0.17779 0.20317 0.060418 -0.22338 -0.011968 -0.025556 0.031613 0.046988 0.29616 -0.14653 -0.066697 0.057579 -0.051426 -0.090969 -0.13649 -0.10832 0.1571 -0.13456 0.048311 -0.13967 -0.14213 -0.070076 0.077576 0.1108 -0.074792 0.054265 -0.13497 0.21563 -0.0035825 -0.029059 -0.058786 0.13175 -0.32113 -0.078494 0.085128 0.1776 -0.018646 -0.21253 -0.055331 -0.26802 0.049813 -0.15496 -0.11779 -0.054253 -0.094698 0.033064 0.0071798 -0.092088 0.019276 -0.044716 0.061554 -0.11275 -0.02814 0.11181 -0.11864 -0.054709 -0.15037 0.12101 0.094038 -0.049875 0.036692 0.087307 0.10522 0.011711 0.020568 0.17129 0.0051627 -0.14681 -0.24214 0.1796 -0.11057 -0.025872 0.0055862 0.10829 0.16214 -0.20609 0.1495 -0.037337 0.068033 0.21622 -0.062373 0.11006 0.017465 0.091627 0.050373 -0.088621 0.12941 0.13422 0.12196 -0.026376 -0.15821 0.047044 0.083914 0.041803 0.10757 0.024207 0.079809 0.095955 -0.19516 -0.013495 0.30933 -0.064934 0.1617 0.22097 0.30195 0.10599 -0.027897 0.13809 0.27055 0.11764 -0.17773 0.074508 -0.021433 -0.03512 -0.076053 -0.1055 
</s> 0.083077 -0.08317 -0.045767 -0.063696 0.085563 0.1074 0.069066 -0.020829 0.084174 0.037383 0.050695 0.054946 0.0083869 -0.082132 -0.097475 0.013524 -0.016979 -0.044268 0.0013435 -0.054557 -0.048235 -0.0043116 0.044335 -0.022312 -0.075053 -0.14339 -0.035912 0.019858 -0.13814 0.02197 -0.082358 -0.10757 -0.016287 0.073368 -0.10283 -0.13122 -0.074732 -0.049623 0.098457 0.048656 0.052947 0.12632 -0.10341 0.072621 0.067423 -0.049356 -0.14571 0.016522 -0.045528 -0.03341 -0.020214 -0.11105 -0.081604 0.01268 0.11224 -0.074397 -0.087486 -0.00085154 0.15648 0.014011 -0.21745 -0.051941 0.028237 0.11396 0.039834 -0.084912 0.083998 0.03383 -0.018377 -0.0082663 -0.050628 0.011999 -0.04449 0.020804 -0.028449 0.053864 0.017771 0.00014496 0.018563 0.074026 0.015818 0.035252 0.045426 -0.019885 -0.026122 -0.02725 -0.038532 0.075616 -0.041608 -0.016716 0.041554 0.030851 0.10111 -0.0036038 -0.1124 -0.042942 -0.046957 -0.021779 -0.029588 0.011425 0.0098406 0.051007 0.032415 0.065998 0.0075992 -0.025886 -0.0034357 -0.10469 0.048557 -0.10638 0.056617 -0.057773 -0.067696 -0.067328 0.038158 -0.028996 0.027616 -0.037058 -0.037897 0.041356 0.064202 0.021564 0.03769 0.025015 -0.063434 -0.059585 0.11089 0.043323 0.080812 0.015731 -0.037962 -0.038906 -0.13071 -0.015361 -0.021266 0.092389 -0.083929 -0.026563 0.022611 -0.0016754 0.022057 0.096437 -0.094977 -0.074626 0.096049 -0.11883 0.041255 0.0046128 -0.063259 0.017524 -0.12642 -0.013153 -0.01126 0.068364 -0.047743 -0.010772 -0.05275 0.051323 0.006072 0.094392 0.068291 0.044935 -0.089638 0.042843 -0.07976 -0.049087 -0.0090727 -0.084025 -0.10231 0.036788 -0.0049602 0.063103 0.09671 0.099574 0.017121 -0.13586 0.04875 0.10721 0.17441 0.060806 -0.083868 -0.10522 -0.15564 0.18461 -0.095904 0.10906 0.031562 -0.11946 -0.0050988 -0.013975 0.01687 0.025103 0.15903 -0.079467 -0.035356 0.031777 -0.027843 -0.049179 -0.073285 -0.057738 0.084188 -0.073335 0.024883 -0.076111 -0.077783 -0.036925 0.042694 0.060255 -0.040303 0.029409 -0.07245 0.11572 -0.0018338 -0.01538 -0.030153 0.06997 -0.17131 -0.042605 0.045557 0.093979 -0.0080407 -0.11288 -0.030329 -0.14487 0.028734 -0.085308 -0.062441 -0.031372 -0.05119 0.01747 0.0051474 -0.051151 0.0095218 -0.023717 0.032271 -0.060745 -0.014131 0.06129 -0.062258 -0.02949 -0.080692 0.062815 0.051336 -0.025983 0.020467 0.046474 0.055644 0.0054375 0.010458 0.091328 0.0033684 -0.077544 -0.13018 0.097057 -0.060699 -0.01425 0.0034534 0.058622 0.08803 -0.11131 0.080169 -0.019641 0.037272 0.1151 -0.033853 0.056912 0.0098513 0.049292 0.02566 -0.047567 0.068635 0.072299 0.066984 -0.014934 -0.086032 0.025233 0.043633 0.022815 0.056864 0.013966 0.044076 0.052453 -0.10379 -0.0078775 0.16628 -0.03553 0.0869 0.11936 0.16333 0.055581 -0.015469 0.072129 0.14444 0.062389 -0.095749 0.038313 -0.011546 -0.017885 -0.04139 -0.05613 
韩国 0.17883 -0.17472 -0.099302 -0.13703 0.18538 0.22738 0.14927 -0.046572 0.17726 0.08086 0.10866 0.11677 0.01657 -0.17512 -0.21104 0.025851 -0.041335 -0.096019 0.0021053 -0.11868 -0.1036 -0.012137 0.094346 -0.048089 -0.16035 -0.30692 -0.077415 0.043447 -0.29532 0.046781 -0.17905 -0.23043 -0.035917 0.1546 -0.21861 -0.28184 -0.16106 -0.10581 0.20915 0.10433 0.11366 0.27393 -0.21968 0.15097 0.14591 -0.10696 -0.3137 0.031815 -0.099346 -0.069201 -0.043996 -0.23663 -0.17754 0.026977 0.23694 -0.15967 -0.18734 -0.00017152 0.33262 0.029494 -0.46765 -0.1105 0.058602 0.24142 0.085798 -0.18209 0.17854 0.074883 -0.041293 -0.018767 -0.10991 0.025121 -0.092051 0.043285 -0.059999 0.11597 0.038525 0.002229 0.041116 0.15662 0.032941 0.075874 0.098555 -0.044534 -0.057496 -0.061572 -0.082975 0.1609 -0.090136 -0.034469 0.089361 0.064918 0.21633 -0.0053659 -0.24319 -0.091877 -0.098229 -0.044459 -0.061252 0.023207 0.022607 0.10919 0.069551 0.14016 0.015728 -0.054349 -0.0031793 -0.22279 0.10672 -0.23205 0.12166 -0.1227 -0.14545 -0.14485 0.082988 -0.061643 0.059671 -0.08056 -0.080732 0.088176 0.13845 0.045204 0.081878 0.051519 -0.13777 -0.12872 0.23975 0.091023 0.17304 0.035778 -0.080779 -0.082522 -0.27801 -0.035798 -0.044107 0.19665 -0.18185 -0.051486 0.046804 -0.00388 0.050774 0.20739 -0.20366 -0.15917 0.20276 -0.25481 0.088427 0.0093739 -0.13706 0.038123 -0.27238 -0.02962 -0.023659 0.14572 -0.10463 -0.024546 -0.11532 0.10728 0.012121 0.202 0.14801 0.10011 -0.1915 0.090614 -0.17369 -0.10508 -0.019339 -0.18151 -0.22187 0.080104 -0.01023 0.13494 0.20992 0.21373 0.036686 -0.29194 0.10669 0.23326 0.37457 0.13099 -0.17725 -0.22472 -0.33399 0.39288 -0.20561 0.23528 0.066408 -0.25625 -0.01171 -0.02761 0.034295 0.055057 0.34023 -0.17115 -0.078697 0.064972 -0.058958 -0.10725 -0.1583 -0.12255 0.17884 -0.15519 0.053836 -0.16424 -0.16659 -0.080214 0.090658 0.12941 -0.086185 0.062431 -0.15557 0.24866 0.00016946 -0.033368 -0.06462 0.15186 -0.36771 -0.09289 0.096047 0.20058 -0.016564 -0.24407 -0.06285 -0.30818 0.058464 -0.18139 -0.13399 -0.065022 -0.11003 0.037657 0.0090917 -0.10854 0.022094 -0.051894 0.070305 -0.13114 -0.032414 0.13133 -0.13294 -0.062619 -0.17465 0.14032 0.11012 -0.054638 0.045701 0.10117 0.12029 0.014362 0.024114 0.1979 0.0056635 -0.16792 -0.27939 0.20677 -0.13066 -0.029444 0.0044783 0.12523 0.18749 -0.23859 0.17038 -0.042999 0.079683 0.25045 -0.072783 0.1253 0.022103 0.10787 0.057779 -0.10274 0.15125 0.1569 0.1402 -0.035355 -0.18354 0.055999 0.093931 0.051431 0.12563 0.028108 0.092619 0.1133 -0.22221 -0.014656 0.35732 -0.074148 0.18968 0.25537 0.34884 0.12172 -0.032585 0.15952 0.30832 0.13183 -0.20793 0.083266 -0.022179 -0.039468 -0.087973 -0.12178 
与 0.14109 -0.13945 -0.077384 -0.10567 0.14224 0.18071 0.11726 -0.035418 0.13927 0.060606 0.087145 0.093839 0.013659 -0.13626 -0.16536 0.022722 -0.032709 -0.078307 0.0040817 -0.094285 -0.080495 -0.010069 0.074877 -0.039877 -0.12379 -0.23875 -0.059812 0.036518 -0.23175 0.035803 -0.14142 -0.1813 -0.028435 0.12038 -0.17124 -0.22379 -0.12766 -0.082345 0.16582 0.082671 0.09188 0.21688 -0.17156 0.11857 0.11143 -0.085299 -0.24397 0.024977 -0.07717 -0.05529 -0.034217 -0.18623 -0.13953 0.024911 0.18738 -0.1259 -0.14537 -0.0017084 0.26367 0.02583 -0.36735 -0.088803 0.046472 0.19101 0.068811 -0.14172 0.14029 0.054926 -0.030828 -0.013044 -0.084648 0.019767 -0.072869 0.033768 -0.046141 0.092198 0.031036 0.0013227 0.03213 0.12262 0.024029 0.062142 0.080262 -0.034547 -0.046835 -0.044706 -0.062153 0.13074 -0.072549 -0.026532 0.070424 0.051757 0.16838 -0.0068782 -0.18989 -0.073442 -0.079014 -0.035359 -0.049386 0.018395 0.015384 0.082645 0.053122 0.11203 0.012244 -0.040177 -0.0039237 -0.17674 0.081332 -0.18042 0.093087 -0.096249 -0.11373 -0.11317 0.067513 -0.049196 0.049121 -0.060839 -0.065086 0.069537 0.10583 0.035631 0.064306 0.039898 -0.10907 -0.10301 0.18798 0.071314 0.13414 0.024896 -0.06363 -0.066447 -0.21905 -0.026348 -0.035043 0.1561 -0.14097 -0.042027 0.038939 -0.0026761 0.036376 0.15985 -0.16034 -0.12427 0.16189 -0.19676 0.072433 0.0061753 -0.10817 0.030625 -0.21289 -0.02209 -0.018707 0.11426 -0.081421 -0.017893 -0.090162 0.084438 0.0096221 0.15964 0.11628 0.074514 -0.15203 0.07106 -0.1375 -0.08157 -0.018251 -0.14251 -0.17264 0.065264 -0.0069894 0.10466 0.16273 0.1691 0.02901 -0.2305 0.083833 0.18162 0.29438 0.10208 -0.14207 -0.17633 -0.26237 0.31123 -0.16053 0.18279 0.054659 -0.20227 -0.0081958 -0.021583 0.029681 0.043092 0.26644 -0.13252 -0.060255 0.053296 -0.047599 -0.085591 -0.12287 -0.097636 0.14266 -0.12101 0.044467 -0.1279 -0.13373 -0.060379 0.071502 0.10226 -0.070688 0.048047 -0.12101 0.19497 -0.0017857 -0.027706 -0.051226 0.1168 -0.29045 -0.072629 0.078161 0.16036 -0.014865 -0.18837 -0.049916 -0.24446 0.045657 -0.14543 -0.10666 -0.053921 -0.087935 0.029955 0.0070055 -0.084802 0.018237 -0.039405 0.05687 -0.10317 -0.025077 0.09986 -0.10456 -0.050183 -0.13842 0.10768 0.088234 -0.042974 0.033872 0.078391 0.094026 0.0096759 0.015951 0.15285 0.0013209 -0.13028 -0.2193 0.16192 -0.10459 -0.022427 0.0035354 0.099523 0.14681 -0.18845 0.1365 -0.03442 0.064289 0.19527 -0.057043 0.098127 0.017332 0.083802 0.045119 -0.078348 0.11845 0.12334 0.11339 -0.026709 -0.14363 0.04016 0.077474 0.039374 0.098777 0.020325 0.074532 0.087414 -0.17357 -0.012154 0.28019 -0.060057 0.14802 0.20013 0.27545 0.096783 -0.026623 0.12363 0.24516 0.10579 -0.16238 0.064827 -0.021426 -0.030018 -0.069925 -0.095288 
有 0.13394 -0.13075 -0.073797 -0.099202 0.13958 0.17274 0.11376 -0.036956 0.13245 0.061122 0.081073 0.086329 0.010505 -0.13198 -0.1571 0.022678 -0.030386 -0.070859 0.004124 -0.087854 -0.07648 -0.0076536 0.072074 -0.037668 -0.12112 -0.22801 -0.057781 0.033625 -0.22124 0.035757 -0.1339 -0.16988 -0.025159 0.11527 -0.16188 -0.21275 -0.12102 -0.079735 0.15834 0.078452 0.084248 0.2051 -0.16343 0.11413 0.10869 -0.079151 -0.23236 0.022894 -0.074895 -0.055207 -0.032158 -0.1811 -0.13181 0.019103 0.17636 -0.12086 -0.1382 -0.00086103 0.24678 0.023117 -0.34905 -0.081501 0.043462 0.18336 0.06473 -0.13345 0.13179 0.055799 -0.030089 -0.011611 -0.08191 0.020598 -0.068907 0.030562 -0.049699 0.087691 0.026052 0.0021339 0.031776 0.11697 0.023245 0.057835 0.074302 -0.030786 -0.043439 -0.04419 -0.058425 0.12209 -0.067637 -0.029959 0.064582 0.048641 0.16175 -0.0076083 -0.17728 -0.07001 -0.07265 -0.033169 -0.047978 0.01849 0.017888 0.082752 0.05068 0.10436 0.011777 -0.041794 -0.0035242 -0.16848 0.078632 -0.17011 0.092791 -0.090713 -0.11017 -0.10753 0.062644 -0.046816 0.044824 -0.058763 -0.062622 0.066152 0.10295 0.034866 0.058976 0.037459 -0.1021 -0.098583 0.17989 0.068887 0.12811 0.02427 -0.060588 -0.064101 -0.20758 -0.023788 -0.035516 0.14624 -0.13382 -0.040412 0.032645 -0.0052435 0.036943 0.15349 -0.15258 -0.1195 0.15498 -0.18976 0.065041 0.0085644 -0.10143 0.028583 -0.2018 -0.024634 -0.016498 0.11028 -0.075735 -0.016907 -0.08484 0.08187 0.0091394 0.15262 0.10689 0.072236 -0.14279 0.069902 -0.12822 -0.08132 -0.016688 -0.13417 -0.16862 0.05903 -0.0073572 0.10006 0.15623 0.15965 0.026771 -0.2192 0.075499 0.17432 0.27948 0.098961 -0.13408 -0.16645 -0.24639 0.29171 -0.15231 0.17502 0.04807 -0.19064 -0.0079485 -0.021976 0.027103 0.038917 0.25367 -0.12859 -0.059725 0.048948 -0.045293 -0.081571 -0.11752 -0.092854 0.13371 -0.11816 0.03898 -0.12241 -0.12257 -0.058858 0.066351 0.096952 -0.066427 0.045908 -0.11589 0.18322 -0.00071741 -0.026877 -0.048431 0.1133 -0.27429 -0.070824 0.072196 0.15269 -0.013719 -0.17798 -0.049469 -0.22936 0.042964 -0.13722 -0.10076 -0.049179 -0.0821 0.029404 0.0051328 -0.078929 0.016197 -0.040989 0.051192 -0.097857 -0.023456 0.095858 -0.10325 -0.04393 -0.13043 0.10375 0.07936 -0.041375 0.033574 0.075528 0.088788 0.0095947 0.015877 0.14488 0.0041778 -0.1259 -0.20817 0.15505 -0.095287 -0.021754 0.0052266 0.094348 0.14056 -0.18091 0.1264 -0.033264 0.059868 0.18776 -0.055837 0.093408 0.014551 0.080577 0.043261 -0.077743 0.11098 0.11739 0.10494 -0.023161 -0.13804 0.040718 0.071084 0.035913 0.09237 0.023052 0.070229 0.082683 -0.16718 -0.0099667 0.26812 -0.056037 0.14104 0.18827 0.26144 0.090067 -0.023321 0.11625 0.23282 0.10039 -0.15341 0.065158 -0.017499 -0.030707 -0.065609 -0.090443 
等 0.16719 -0.16692 -0.090692 -0.1264 0.17353 0.2159 0.13963 -0.040264 0.16737 0.074377 0.10078 0.10865 0.01579 -0.16251 -0.19734 0.025245 -0.036789 -0.089918 0.0012003 -0.11054 -0.093954 -0.0091933 0.086647 -0.04387 -0.15021 -0.2874 -0.069081 0.043161 -0.27465 0.042406 -0.16753 -0.21605 -0.032425 0.14328 -0.20643 -0.26333 -0.15077 -0.10201 0.19711 0.097176 0.1063 0.25641 -0.2065 0.14036 0.13322 -0.10323 -0.29338 0.033559 -0.089537 -0.064655 -0.043085 -0.22539 -0.16524 0.025266 0.22372 -0.15103 -0.17695 -0.00087825 0.31271 0.028125 -0.43807 -0.10363 0.056629 0.22732 0.07989 -0.16889 0.16526 0.068279 -0.037083 -0.018675 -0.10178 0.021682 -0.088675 0.040036 -0.057619 0.1095 0.038516 0.0019309 0.03829 0.14735 0.031965 0.074107 0.094556 -0.041216 -0.051687 -0.055461 -0.074514 0.15299 -0.085153 -0.035272 0.081716 0.062111 0.20513 -0.010662 -0.22441 -0.088035 -0.094094 -0.040328 -0.058311 0.023442 0.020428 0.10299 0.062473 0.13036 0.016697 -0.053439 -0.0019066 -0.20877 0.099839 -0.21324 0.1118 -0.11666 -0.13918 -0.13619 0.077858 -0.059517 0.053163 -0.072492 -0.074655 0.084576 0.12762 0.04161 0.07512 0.049146 -0.12923 -0.11974 0.22781 0.08739 0.16406 0.029903 -0.076266 -0.079364 -0.26363 -0.031076 -0.040652 0.18562 -0.16751 -0.050426 0.045781 -0.0042157 0.04434 0.19071 -0.19088 -0.15227 0.19078 -0.23689 0.080554 0.010704 -0.12704 0.034662 -0.25446 -0.027929 -0.022504 0.1337 -0.095292 -0.023112 -0.10596 0.10218 0.013408 0.19002 0.13745 0.093686 -0.17988 0.082639 -0.16052 -0.096474 -0.019826 -0.16783 -0.21075 0.076659 -0.0099368 0.12458 0.19527 0.202 0.032892 -0.27269 0.10102 0.21838 0.34832 0.12242 -0.16633 -0.2116 -0.31417 0.36913 -0.19057 0.21818 0.063708 -0.23948 -0.012615 -0.028419 0.033302 0.047926 0.31657 -0.16115 -0.071972 0.061868 -0.054336 -0.098815 -0.14526 -0.11628 0.16636 -0.14559 0.050334 -0.15446 -0.15794 -0.073236 0.08319 0.12139 -0.080849 0.059239 -0.14714 0.23362 -0.0013336 -0.032544 -0.063801 0.14019 -0.34394 -0.088025 0.09197 0.18941 -0.019571 -0.22746 -0.061764 -0.2877 0.053674 -0.16968 -0.12415 -0.063173 -0.10412 0.034927 0.0091877 -0.10198 0.023583 -0.046335 0.065633 -0.12334 -0.027827 0.12349 -0.12682 -0.059022 -0.16313 0.12932 0.10237 -0.0508 0.040171 0.090151 0.11224 0.013527 0.020039 0.18503 0.0038027 -0.15948 -0.26185 0.19508 -0.12365 -0.028008 0.0079484 0.11704 0.17469 -0.22501 0.16008 -0.044086 0.073336 0.23227 -0.067974 0.11653 0.018439 0.10151 0.052364 -0.094674 0.13891 0.1434 0.13452 -0.032482 -0.17252 0.048528 0.089551 0.046922 0.11732 0.027268 0.091182 0.1033 -0.20887 -0.013548 0.33427 -0.072496 0.17385 0.23943 0.3259 0.11345 -0.028586 0.14535 0.29277 0.12428 -0.19439 0.078607 -0.022866 -0.036927 -0.083896 -0.11151 
进行 0.16478 -0.16343 -0.091291 -0.12607 0.17162 0.21107 0.13815 -0.042149 0.16421 0.074242 0.10014 0.10718 0.015082 -0.16267 -0.19521 0.026245 -0.03606 -0.088868 0.0037256 -0.11056 -0.094927 -0.0098717 0.088407 -0.045646 -0.14861 -0.28514 -0.071735 0.040904 -0.27315 0.043022 -0.16485 -0.21437 -0.032796 0.14459 -0.20342 -0.26305 -0.15072 -0.097332 0.19573 0.097825 0.10336 0.25179 -0.20514 0.14105 0.13554 -0.099703 -0.28852 0.030771 -0.091241 -0.066739 -0.040445 -0.22227 -0.16275 0.027269 0.22178 -0.14815 -0.17507 0.0015212 0.3092 0.027149 -0.43262 -0.10188 0.054108 0.22619 0.079957 -0.16743 0.16667 0.068495 -0.036354 -0.018321 -0.10196 0.0238 -0.084551 0.041847 -0.056895 0.10587 0.03566 0.00046732 0.037941 0.14559 0.030965 0.072066 0.093762 -0.041579 -0.052073 -0.055595 -0.075813 0.15063 -0.084889 -0.033592 0.084752 0.059163 0.19944 -0.0088589 -0.22371 -0.08479 -0.091001 -0.04178 -0.059321 0.021288 0.021213 0.10031 0.064776 0.12915 0.014856 -0.051625 -0.0048799 -0.2068 0.098068 -0.21351 0.11287 -0.11302 -0.1349 -0.13376 0.076007 -0.057819 0.054942 -0.076009 -0.075633 0.081525 0.12531 0.041715 0.074208 0.047595 -0.12597 -0.1168 0.22427 0.086661 0.16151 0.031917 -0.076355 -0.077719 -0.25927 -0.031608 -0.042226 0.18213 -0.16851 -0.049622 0.04513 -0.0018526 0.04563 0.19028 -0.19103 -0.14676 0.189 -0.23411 0.082808 0.0091212 -0.12575 0.03566 -0.25103 -0.02659 -0.023782 0.13397 -0.095888 -0.02211 -0.10522 0.097807 0.013478 0.18796 0.13416 0.092813 -0.17552 0.082307 -0.15866 -0.095649 -0.020285 -0.16697 -0.20629 0.074593 -0.012178 0.12483 0.19347 0.19762 0.033197 -0.26808 0.097269 0.21349 0.34449 0.1183 -0.16627 -0.20861 -0.30804 0.36443 -0.18885 0.21612 0.060147 -0.23931 -0.0097298 -0.028249 0.033428 0.048861 0.31627 -0.15892 -0.071953 0.060283 -0.055265 -0.097523 -0.14494 -0.11312 0.16453 -0.14539 0.048993 -0.15087 -0.15632 -0.075024 0.082549 0.12033 -0.080231 0.057987 -0.14538 0.22989 -0.0029882 -0.032956 -0.060584 0.13973 -0.34115 -0.085905 0.088968 0.1854 -0.016975 -0.22551 -0.059811 -0.28546 0.05318 -0.16898 -0.12424 -0.061934 -0.10326 0.035115 0.010196 -0.099393 0.020689 -0.047752 0.062593 -0.1224 -0.030152 0.12179 -0.12432 -0.056311 -0.16176 0.12946 0.10282 -0.052451 0.041791 0.091702 0.11025 0.013555 0.021077 0.18198 0.0053998 -0.1559 -0.25951 0.19326 -0.12088 -0.02603 0.0053569 0.11558 0.17298 -0.22178 0.15793 -0.041842 0.073173 0.22931 -0.068092 0.11678 0.018319 0.10061 0.054338 -0.093317 0.13574 0.14409 0.12993 -0.030344 -0.16893 0.049809 0.088776 0.047478 0.11619 0.026457 0.086918 0.10555 -0.20809 -0.013992 0.33087 -0.069852 0.17217 0.23806 0.32462 0.11233 -0.029455 0.14401 0.29048 0.12361 -0.19221 0.077779 -0.021166 -0.035389 -0.081971 -0.11054 
表示 0.1552 -0.15423 -0.084668 -0.11836 0.1603 0.19974 0.12807 -0.039929 0.15663 0.070296 0.09454 0.10349 0.017031 -0.15337 -0.18468 0.02273 -0.03355 -0.085437 0.0027141 -0.10176 -0.088587 -0.007487 0.082005 -0.044802 -0.14067 -0.26884 -0.066561 0.039262 -0.25676 0.039258 -0.15597 -0.19981 -0.030775 0.13731 -0.19318 -0.24763 -0.14001 -0.093716 0.18482 0.09197 0.099753 0.23689 -0.19304 0.1319 0.12579 -0.094604 -0.27404 0.029455 -0.085175 -0.061068 -0.037269 -0.20925 -0.15278 0.024843 0.20853 -0.14182 -0.16315 -0.00030213 0.29099 0.027001 -0.40768 -0.097391 0.052285 0.21324 0.074582 -0.15653 0.15542 0.063829 -0.035466 -0.015204 -0.094647 0.023222 -0.081407 0.039246 -0.05287 0.10134 0.03387 0.00075607 0.034514 0.13561 0.027504 0.068382 0.086836 -0.038826 -0.049991 -0.051787 -0.072249 0.14099 -0.077645 -0.033173 0.077942 0.056405 0.18876 -0.0079271 -0.21089 -0.080309 -0.087129 -0.039141 -0.055588 0.021751 0.017393 0.094875 0.060953 0.12302 0.015333 -0.04755 -0.0050061 -0.19603 0.093318 -0.20262 0.10454 -0.10829 -0.12924 -0.12708 0.074945 -0.053523 0.053187 -0.067516 -0.069599 0.075951 0.11996 0.038768 0.070905 0.044901 -0.12096 -0.11131 0.21025 0.081302 0.1526 0.030951 -0.071218 -0.073316 -0.24374 -0.029692 -0.04137 0.17289 -0.15605 -0.046789 0.041571 -0.0033189 0.041838 0.17688 -0.17773 -0.14001 0.18043 -0.22384 0.078274 0.010692 -0.12173 0.032348 -0.23647 -0.02604 -0.020932 0.12759 -0.0913 -0.020804 -0.10141 0.093429 0.011194 0.18001 0.12779 0.085879 -0.1675 0.080287 -0.14974 -0.092817 -0.017451 -0.15704 -0.19315 0.070632 -0.011117 0.11731 0.18317 0.18759 0.030865 -0.25605 0.092018 0.20014 0.32772 0.11261 -0.15656 -0.19786 -0.29047 0.34462 -0.18031 0.20358 0.059098 -0.22461 -0.01073 -0.027165 0.030461 0.044322 0.29879 -0.14812 -0.067425 0.057412 -0.051426 -0.093918 -0.13679 -0.10768 0.15676 -0.13668 0.044837 -0.14081 -0.14824 -0.069441 0.077538 0.11321 -0.076946 0.053821 -0.13605 0.2186 -0.0026851 -0.02936 -0.057413 0.13057 -0.32366 -0.079835 0.084458 0.17846 -0.015589 -0.21061 -0.056422 -0.27 0.050664 -0.15879 -0.11614 -0.058286 -0.096414 0.033946 0.0084687 -0.09298 0.0207 -0.045701 0.062358 -0.11393 -0.028131 0.11527 -0.11909 -0.05466 -0.15119 0.11959 0.09713 -0.04938 0.037861 0.086254 0.10622 0.012851 0.021601 0.17217 0.0038871 -0.1484 -0.24419 0.17954 -0.11414 -0.025967 0.006449 0.10824 0.16344 -0.20998 0.14842 -0.04013 0.069974 0.21783 -0.065016 0.10891 0.017462 0.093751 0.049452 -0.089088 0.13053 0.13599 0.1239 -0.029952 -0.16 0.046639 0.081533 0.043895 0.10724 0.025128 0.082263 0.097433 -0.19471 -0.012181 0.31295 -0.067379 0.16269 0.22166 0.30597 0.10609 -0.026478 0.13587 0.27307 0.11776 -0.17995 0.072616 -0.021869 -0.034594 -0.077883 -0.10486 
年 0.14863 -0.14995 -0.082991 -0.11183 0.15552 0.19094 0.12575 -0.041193 0.1491 0.067373 0.092643 0.096497 0.015303 -0.14849 -0.17402 0.02131 -0.030787 -0.078669 0.0039235 -0.097021 -0.083025 -0.0081363 0.079542 -0.043221 -0.13525 -0.25659 -0.066125 0.034495 -0.24964 0.038917 -0.15039 -0.19208 -0.028108 0.13036 -0.18457 -0.23935 -0.13585 -0.090719 0.17674 0.090683 0.093863 0.22956 -0.18609 0.12672 0.12029 -0.088592 -0.2621 0.027776 -0.080336 -0.0605 -0.035943 -0.20034 -0.14793 0.023647 0.1991 -0.13624 -0.15497 -0.0025909 0.27936 0.02369 -0.39278 -0.093323 0.052829 0.20598 0.07286 -0.1514 0.15362 0.061236 -0.032786 -0.013356 -0.093245 0.019995 -0.076778 0.038185 -0.053848 0.095386 0.031895 0.0016697 0.034317 0.13329 0.027937 0.064902 0.084769 -0.038126 -0.047285 -0.049827 -0.065067 0.13363 -0.076357 -0.031289 0.077167 0.053882 0.18146 -0.0077737 -0.20024 -0.077577 -0.083807 -0.038759 -0.054597 0.018805 0.018057 0.091627 0.058576 0.12045 0.011758 -0.044555 -0.0044878 -0.1894 0.086353 -0.19024 0.099553 -0.10447 -0.12175 -0.12182 0.069528 -0.051891 0.050174 -0.066302 -0.067081 0.072467 0.11182 0.040029 0.065591 0.042358 -0.11466 -0.10637 0.20282 0.079079 0.14413 0.029184 -0.070593 -0.071656 -0.23443 -0.030134 -0.041365 0.16372 -0.15238 -0.047019 0.038682 -0.00065335 0.040447 0.1719 -0.1701 -0.1348 0.17303 -0.21108 0.076381 0.0076289 -0.11362 0.032863 -0.22657 -0.021921 -0.021839 0.12153 -0.084771 -0.019853 -0.097674 0.086363 0.011283 0.16926 0.12469 0.082604 -0.16079 0.076035 -0.1434 -0.087419 -0.018088 -0.15172 -0.1876 0.067576 -0.011565 0.1135 0.17454 0.17947 0.028202 -0.24545 0.089761 0.19305 0.31452 0.10862 -0.15042 -0.1908 -0.27912 0.333 -0.17311 0.19856 0.056935 -0.21651 -0.0076218 -0.027343 0.027104 0.046713 0.28671 -0.14182 -0.065304 0.054681 -0.047266 -0.088701 -0.13262 -0.10637 0.15076 -0.13159 0.044879 -0.13559 -0.14148 -0.067301 0.074365 0.10948 -0.071505 0.051506 -0.13159 0.20684 0.001086 -0.028947 -0.056635 0.12471 -0.30753 -0.074862 0.081252 0.1724 -0.014419 -0.20257 -0.054459 -0.2626 0.046883 -0.1517 -0.11264 -0.055248 -0.089583 0.03043 0.0068936 -0.089915 0.01936 -0.043386 0.055205 -0.10974 -0.026493 0.11245 -0.11417 -0.053825 -0.14349 0.11264 0.095466 -0.046028 0.038649 0.083615 0.10284 0.013841 0.019469 0.16401 0.0032673 -0.14179 -0.23277 0.17327 -0.11151 -0.027399 0.0030788 0.10263 0.15761 -0.20204 0.1406 -0.038851 0.067261 0.20975 -0.063236 0.10247 0.017588 0.087798 0.048543 -0.086537 0.12331 0.13051 0.12041 -0.028336 -0.15227 0.043747 0.079553 0.039935 0.10435 0.022976 0.078519 0.096423 -0.18432 -0.014064 0.3005 -0.067168 0.15594 0.21539 0.29296 0.10329 -0.027777 0.13328 0.26247 0.11245 -0.17491 0.072641 -0.020067 -0.030959 -0.073318 -0.10308 
) 0.13474 -0.13592 -0.075408 -0.10012 0.13874 0.17448 0.11243 -0.034435 0.13108 0.05936 0.082829 0.084896 0.0091995 -0.13343 -0.15585 0.021591 -0.028581 -0.072015 0.004871 -0.089077 -0.07758 -0.0092921 0.071629 -0.036328 -0.12196 -0.2316 -0.058633 0.033334 -0.222 0.03453 -0.13221 -0.17223 -0.024467 0.11632 -0.16411 -0.2124 -0.11818 -0.079635 0.15867 0.07824 0.084458 0.20458 -0.16464 0.11362 0.10676 -0.080444 -0.23466 0.025273 -0.074986 -0.053674 -0.032074 -0.18111 -0.12877 0.022704 0.17863 -0.12118 -0.14148 -0.00025285 0.25056 0.023652 -0.35241 -0.083774 0.044543 0.18448 0.063969 -0.13548 0.13679 0.054487 -0.029517 -0.014761 -0.081598 0.018916 -0.070319 0.032374 -0.04754 0.087187 0.02914 0.001031 0.030735 0.11914 0.025944 0.057793 0.073381 -0.030492 -0.040405 -0.045926 -0.0633 0.12357 -0.066876 -0.030316 0.064958 0.046703 0.16161 -0.0068077 -0.1789 -0.066291 -0.075577 -0.034634 -0.047707 0.019517 0.013565 0.080806 0.050058 0.10564 0.01214 -0.042987 -0.0030664 -0.16643 0.078538 -0.1743 0.091782 -0.094217 -0.10962 -0.10753 0.062272 -0.047085 0.046184 -0.062876 -0.059102 0.067949 0.10147 0.036158 0.062932 0.038559 -0.10135 -0.096178 0.17842 0.068892 0.13203 0.025469 -0.061787 -0.060707 -0.21038 -0.024906 -0.035572 0.14795 -0.1373 -0.041564 0.038136 -0.0023873 0.035303 0.15513 -0.15388 -0.11978 0.15184 -0.19178 0.065252 0.0073055 -0.10414 0.02887 -0.20147 -0.024106 -0.018359 0.1081 -0.076219 -0.018888 -0.086469 0.07963 0.010381 0.15352 0.11196 0.072731 -0.14495 0.067759 -0.13069 -0.078709 -0.014605 -0.13763 -0.16772 0.059463 -0.01053 0.10067 0.15791 0.16177 0.024996 -0.2159 0.079152 0.17406 0.27993 0.096857 -0.1343 -0.17 -0.25154 0.29329 -0.15477 0.17382 0.052601 -0.19522 -0.0069346 -0.020784 0.027776 0.040131 0.25782 -0.12765 -0.059798 0.048768 -0.0446 -0.078357 -0.11641 -0.09166 0.13398 -0.11441 0.042705 -0.12259 -0.1279 -0.057399 0.069341 0.097518 -0.067102 0.048897 -0.11715 0.18563 -0.0019018 -0.027091 -0.051477 0.11375 -0.27776 -0.067524 0.072205 0.15499 -0.013362 -0.18262 -0.047715 -0.23029 0.047225 -0.13488 -0.10135 -0.04943 -0.083167 0.028204 0.0067663 -0.07964 0.016905 -0.039668 0.051323 -0.097795 -0.021149 0.096651 -0.097712 -0.045933 -0.13142 0.10311 0.083807 -0.038795 0.032951 0.074213 0.089706 0.0099673 0.018748 0.14952 0.0042298 -0.12799 -0.20836 0.15556 -0.095686 -0.021183 0.0025759 0.09474 0.14226 -0.18111 0.12965 -0.035413 0.061317 0.18714 -0.055407 0.093054 0.013489 0.080472 0.042816 -0.077409 0.11177 0.11454 0.10494 -0.023792 -0.13798 0.03998 0.071606 0.037983 0.096698 0.020591 0.072879 0.083176 -0.16484 -0.0087349 0.2697 -0.055823 0.14111 0.19225 0.26438 0.091656 -0.023871 0.11926 0.234 0.10005 -0.15542 0.063674 -0.017607 -0.028091 -0.066264 -0.090293 
中 0.12687 -0.1256 -0.069874 -0.097508 0.13111 0.16197 0.10501 -0.031208 0.12752 0.058098 0.078028 0.082476 0.013641 -0.12077 -0.14849 0.018972 -0.028507 -0.069329 0.0010142 -0.085013 -0.073984 -0.0074741 0.067306 -0.03386 -0.11496 -0.21672 -0.055568 0.0311 -0.2117 0.032484 -0.12532 -0.161 -0.021622 0.11076 -0.15551 -0.20141 -0.11375 -0.075732 0.14823 0.076789 0.079529 0.19125 -0.15495 0.10758 0.10394 -0.075677 -0.22331 0.022935 -0.069525 -0.052646 -0.030899 -0.16921 -0.12653 0.019135 0.16953 -0.1143 -0.13214 0.0017009 0.23731 0.01902 -0.32887 -0.078035 0.041933 0.17228 0.063376 -0.12909 0.12762 0.050079 -0.028432 -0.013955 -0.07655 0.018269 -0.067279 0.034107 -0.043467 0.079928 0.025114 0.0028896 0.029399 0.11072 0.02279 0.055198 0.068619 -0.028248 -0.04216 -0.042702 -0.058373 0.1166 -0.066677 -0.024023 0.065496 0.044222 0.15558 -0.0070316 -0.17034 -0.068263 -0.070704 -0.031861 -0.04393 0.017452 0.012224 0.077639 0.048624 0.098166 0.010453 -0.037808 -0.0035789 -0.15671 0.075831 -0.16009 0.08547 -0.08975 -0.10148 -0.10493 0.060572 -0.041899 0.045548 -0.05896 -0.056216 0.06329 0.098189 0.030457 0.055748 0.035113 -0.099656 -0.091935 0.17346 0.066089 0.12396 0.023469 -0.057189 -0.060332 -0.19911 -0.02344 -0.031077 0.1373 -0.12729 -0.038317 0.031735 -0.0026141 0.035066 0.1432 -0.14397 -0.11581 0.14325 -0.17959 0.062892 0.0054851 -0.099925 0.028722 -0.19315 -0.022864 -0.015377 0.10569 -0.073268 -0.019256 -0.082658 0.075493 0.0070908 0.14337 0.10352 0.069387 -0.13373 0.063624 -0.12034 -0.075845 -0.013937 -0.12792 -0.15837 0.054918 -0.0087897 0.098294 0.14928 0.1516 0.025778 -0.20779 0.074017 0.16196 0.26506 0.091187 -0.12632 -0.15911 -0.23494 0.27924 -0.14444 0.16691 0.048481 -0.18394 -0.0084108 -0.019113 0.024601 0.039342 0.23979 -0.11773 -0.053686 0.048679 -0.044439 -0.074159 -0.1133 -0.086772 0.12576 -0.11156 0.036346 -0.11328 -0.11848 -0.054061 0.061298 0.093619 -0.063194 0.04546 -0.11035 0.17367 -0.00012275 -0.02503 -0.048183 0.10649 -0.26006 -0.064649 0.069358 0.14457 -0.014669 -0.17415 -0.045894 -0.21903 0.040217 -0.12683 -0.096264 -0.048577 -0.080386 0.02979 0.0051076 -0.077867 0.016757 -0.038675 0.048757 -0.092447 -0.021155 0.091836 -0.093682 -0.04572 -0.12119 0.097636 0.075772 -0.040083 0.0313 0.069945 0.085843 0.007721 0.018228 0.13904 0.0029224 -0.11974 -0.19923 0.148 -0.093988 -0.019737 0.004478 0.090294 0.13396 -0.16928 0.11815 -0.031447 0.056911 0.1787 -0.049932 0.088067 0.013765 0.072668 0.042054 -0.07299 0.10604 0.11127 0.098272 -0.02687 -0.13165 0.040826 0.065442 0.034377 0.086058 0.019912 0.066057 0.08004 -0.15751 -0.0082855 0.25357 -0.056531 0.13354 0.18082 0.24717 0.084979 -0.022276 0.11119 0.21919 0.093858 -0.14795 0.060488 -0.014808 -0.029771 -0.062231 -0.083648 
也 0.13508 -0.136 -0.076804 -0.1046 0.14107 0.1746 0.11318 -0.034146 0.13408 0.060195 0.082937 0.091065 0.011268 -0.13307 -0.16017 0.02101 -0.029144 -0.072803 0.0015926 -0.089806 -0.079736 -0.0064975 0.072785 -0.036488 -0.12203 -0.23248 -0.059829 0.035115 -0.22465 0.03659 -0.13716 -0.17476 -0.025536 0.1191 -0.16809 -0.21206 -0.12297 -0.081434 0.1591 0.082313 0.087508 0.20623 -0.16859 0.11351 0.10973 -0.083349 -0.2378 0.026102 -0.074242 -0.053884 -0.031342 -0.18029 -0.13391 0.024436 0.18165 -0.12448 -0.14404 -0.00023552 0.25296 0.020636 -0.35429 -0.0855 0.046732 0.18521 0.067342 -0.13734 0.13709 0.056123 -0.03119 -0.015178 -0.083235 0.020321 -0.072006 0.035855 -0.046941 0.086172 0.028838 -0.00077794 0.032594 0.12002 0.023605 0.058368 0.073213 -0.033468 -0.042821 -0.044986 -0.061224 0.1236 -0.06942 -0.026934 0.070256 0.046751 0.16512 -0.0047491 -0.18029 -0.071258 -0.076601 -0.034766 -0.046963 0.01791 0.016121 0.081047 0.054013 0.10654 0.010484 -0.041058 -0.004212 -0.17047 0.079618 -0.17327 0.093059 -0.093957 -0.11338 -0.11219 0.065335 -0.047263 0.044227 -0.061557 -0.061464 0.06585 0.10301 0.035478 0.060713 0.040443 -0.10518 -0.099927 0.1861 0.070115 0.13068 0.027754 -0.062727 -0.062422 -0.21453 -0.028874 -0.035011 0.14934 -0.13615 -0.042042 0.037089 -0.0018949 0.036518 0.1562 -0.1534 -0.12317 0.1537 -0.191 0.06681 0.0083069 -0.10405 0.030155 -0.20731 -0.023438 -0.017394 0.11139 -0.076526 -0.020206 -0.088598 0.077839 0.0082335 0.15499 0.11089 0.075054 -0.14506 0.06845 -0.13034 -0.079252 -0.014248 -0.13788 -0.16884 0.060922 -0.0061379 0.10415 0.16002 0.16339 0.024922 -0.22255 0.078736 0.17464 0.2863 0.097943 -0.13854 -0.17186 -0.25525 0.30172 -0.15409 0.1775 0.050742 -0.19375 -0.007018 -0.021284 0.026113 0.04115 0.25758 -0.12857 -0.057725 0.046932 -0.04563 -0.080914 -0.11934 -0.093459 0.13784 -0.11763 0.042837 -0.12398 -0.12836 -0.059375 0.067349 0.10218 -0.066888 0.047187 -0.11827 0.18705 -0.0027191 -0.026203 -0.052728 0.11581 -0.27824 -0.06883 0.073215 0.15245 -0.01278 -0.18666 -0.051263 -0.23439 0.048001 -0.13872 -0.10117 -0.052807 -0.081567 0.028855 0.0062843 -0.082838 0.01689 -0.038847 0.054791 -0.10185 -0.023642 0.099348 -0.10145 -0.047998 -0.13099 0.1017 0.083759 -0.043621 0.036212 0.077005 0.091441 0.0088156 0.020166 0.1499 0.0062717 -0.12872 -0.21383 0.15626 -0.098177 -0.021624 0.0054761 0.0969 0.14115 -0.18257 0.12816 -0.033395 0.061186 0.19067 -0.054762 0.094339 0.014388 0.080429 0.043964 -0.077492 0.11414 0.12053 0.10688 -0.026084 -0.13838 0.043423 0.070821 0.039366 0.094792 0.020369 0.07297 0.084958 -0.16948 -0.011065 0.26859 -0.056389 0.14106 0.19312 0.26612 0.090564 -0.021053 0.11722 0.23679 0.10012 -0.15501 0.064457 -0.017387 -0.030205 -0.066457 -0.089717 
( 0.15855 -0.15461 -0.08858 -0.11793 0.16074 0.20335 0.1283 -0.039388 0.15515 0.069943 0.095303 0.10041 0.014412 -0.153 -0.18243 0.022323 -0.03348 -0.085155 0.0014441 -0.10263 -0.089294 -0.0098844 0.080723 -0.04229 -0.13993 -0.26919 -0.067822 0.038661 -0.26088 0.040612 -0.15755 -0.20098 -0.032621 0.13705 -0.19113 -0.2451 -0.1427 -0.093639 0.18775 0.093267 0.10072 0.24162 -0.19404 0.12927 0.12519 -0.095413 -0.27615 0.03213 -0.084745 -0.063696 -0.037323 -0.2099 -0.15253 0.026561 0.21086 -0.14059 -0.16309 0.0010821 0.29208 0.026247 -0.40873 -0.096192 0.049781 0.21219 0.076157 -0.16126 0.15787 0.064373 -0.033933 -0.013715 -0.094779 0.023022 -0.081969 0.037063 -0.055315 0.10134 0.031786 -0.00033418 0.03872 0.13996 0.030062 0.069166 0.086096 -0.037043 -0.05031 -0.050584 -0.071048 0.1426 -0.080719 -0.031649 0.078477 0.057516 0.1882 -0.0091538 -0.21335 -0.08227 -0.088474 -0.039703 -0.058293 0.020851 0.018409 0.093654 0.059924 0.12518 0.012369 -0.047048 -0.0028541 -0.1965 0.090537 -0.20088 0.1066 -0.10713 -0.12897 -0.12985 0.073483 -0.054961 0.052893 -0.072346 -0.073037 0.07762 0.11783 0.039213 0.072425 0.044745 -0.12215 -0.11526 0.20947 0.079565 0.15242 0.030541 -0.074213 -0.072953 -0.24596 -0.028417 -0.040076 0.1715 -0.16003 -0.047216 0.04205 -0.0040174 0.043165 0.1799 -0.18029 -0.1413 0.17683 -0.22209 0.078474 0.0074823 -0.12072 0.033215 -0.23961 -0.026861 -0.020993 0.12761 -0.091528 -0.020214 -0.099508 0.093091 0.012338 0.18107 0.12563 0.086739 -0.16823 0.078408 -0.15235 -0.09254 -0.015334 -0.15922 -0.19436 0.069882 -0.0076816 0.11663 0.18458 0.18838 0.029385 -0.2551 0.092645 0.20333 0.32795 0.11578 -0.15772 -0.19423 -0.29217 0.34638 -0.17616 0.20424 0.058226 -0.22543 -0.010746 -0.025124 0.032643 0.045229 0.30103 -0.1508 -0.069138 0.056989 -0.052796 -0.092204 -0.13908 -0.10875 0.15623 -0.13592 0.04865 -0.14227 -0.14583 -0.068525 0.081387 0.11404 -0.075021 0.052959 -0.13824 0.21829 -0.0018857 -0.031577 -0.058072 0.13378 -0.32077 -0.079144 0.084324 0.1768 -0.014594 -0.2129 -0.057937 -0.2707 0.052873 -0.15975 -0.11641 -0.058651 -0.095196 0.033709 0.0083194 -0.096291 0.02096 -0.043344 0.060456 -0.11282 -0.028077 0.11621 -0.11868 -0.05784 -0.15104 0.12091 0.097995 -0.049214 0.039486 0.087144 0.10282 0.01449 0.023461 0.17395 0.0057141 -0.14978 -0.24185 0.18105 -0.11387 -0.026917 0.0032361 0.11116 0.16804 -0.20995 0.1485 -0.039579 0.06821 0.21673 -0.064512 0.10782 0.020049 0.094952 0.048122 -0.091065 0.13058 0.13865 0.12428 -0.030595 -0.16345 0.048281 0.083062 0.043911 0.11019 0.022631 0.082648 0.098022 -0.1964 -0.012016 0.31277 -0.066477 0.16166 0.22653 0.30699 0.107 -0.028764 0.13961 0.27282 0.11889 -0.18045 0.073916 -0.019117 -0.032907 -0.078704 -0.10849 
中国 0.18107 -0.17546 -0.097458 -0.13617 0.18303 0.22969 0.14732 -0.044487 0.1792 0.080575 0.10759 0.11709 0.015873 -0.17294 -0.20855 0.026396 -0.038922 -0.097907 0.0025063 -0.1158 -0.10117 -0.008585 0.096085 -0.052494 -0.16038 -0.30693 -0.077099 0.044159 -0.29521 0.046686 -0.17846 -0.22963 -0.033105 0.15402 -0.21876 -0.2842 -0.16207 -0.106 0.21032 0.10467 0.11439 0.27259 -0.21931 0.1519 0.14581 -0.10783 -0.31233 0.033539 -0.09706 -0.069674 -0.042762 -0.23937 -0.17551 0.02618 0.23773 -0.15991 -0.18848 0.0012153 0.33346 0.030269 -0.46979 -0.1091 0.059248 0.2435 0.08569 -0.17948 0.17977 0.071868 -0.040734 -0.017224 -0.10739 0.026017 -0.092787 0.044907 -0.061841 0.11585 0.039393 0.001484 0.044043 0.15754 0.033644 0.077015 0.10118 -0.041155 -0.056207 -0.058432 -0.081768 0.16272 -0.091104 -0.035803 0.089409 0.062199 0.21423 -0.0083797 -0.24066 -0.09359 -0.098528 -0.0456 -0.064845 0.021806 0.019402 0.1089 0.069233 0.14152 0.016922 -0.054105 -0.0047387 -0.22397 0.10359 -0.23034 0.12042 -0.12428 -0.14646 -0.14299 0.083186 -0.06272 0.060239 -0.081396 -0.079398 0.086427 0.13662 0.046587 0.081227 0.050411 -0.13885 -0.12827 0.24044 0.091405 0.17211 0.034179 -0.079677 -0.083862 -0.28116 -0.033392 -0.044713 0.19868 -0.1791 -0.054398 0.046943 -0.0041108 0.049929 0.20443 -0.20349 -0.16159 0.2055 -0.25453 0.08837 0.0089496 -0.13816 0.03809 -0.27145 -0.027892 -0.023915 0.14569 -0.1026 -0.023146 -0.11531 0.10956 0.013575 0.20073 0.14528 0.097552 -0.18919 0.092247 -0.17318 -0.10516 -0.019425 -0.1813 -0.22443 0.080603 -0.012416 0.13575 0.21033 0.21566 0.037657 -0.29296 0.10385 0.23134 0.3745 0.1317 -0.17791 -0.225 -0.33174 0.39582 -0.20445 0.23523 0.067497 -0.25737 -0.012629 -0.03049 0.035231 0.054827 0.34166 -0.17003 -0.077644 0.062508 -0.060784 -0.1042 -0.15718 -0.12322 0.17842 -0.15455 0.054886 -0.16357 -0.1668 -0.07862 0.08962 0.1302 -0.089061 0.064721 -0.15459 0.24813 -0.0023952 -0.033436 -0.067137 0.14971 -0.36904 -0.093266 0.098914 0.20319 -0.018746 -0.24296 -0.064595 -0.30864 0.058328 -0.18355 -0.13545 -0.068545 -0.11067 0.036839 0.0076397 -0.10688 0.021546 -0.048276 0.06813 -0.13031 -0.029624 0.13084 -0.13515 -0.061131 -0.17379 0.13723 0.11149 -0.053324 0.046038 0.099129 0.12342 0.013466 0.024445 0.19696 0.0049047 -0.16699 -0.28029 0.20467 -0.13164 -0.029053 0.0065318 0.12811 0.19005 -0.23793 0.16838 -0.045672 0.080294 0.24963 -0.073407 0.12494 0.021398 0.10474 0.05829 -0.10289 0.15032 0.15858 0.13985 -0.031916 -0.18253 0.054052 0.093049 0.050483 0.12394 0.027689 0.093154 0.11176 -0.22272 -0.014523 0.35784 -0.07615 0.18609 0.25486 0.35037 0.11998 -0.029782 0.15593 0.31151 0.13335 -0.20599 0.084055 -0.023658 -0.03789 -0.087477 -0.11969 
据 0.17498 -0.17077 -0.095315 -0.12853 0.17911 0.22182 0.1441 -0.044153 0.17262 0.078341 0.10627 0.11282 0.018972 -0.16554 -0.2009 0.025216 -0.038063 -0.092822 0.0048779 -0.11361 -0.097283 -0.008863 0.091664 -0.046653 -0.15139 -0.29488 -0.073936 0.042325 -0.28353 0.0441 -0.17131 -0.22143 -0.032481 0.1502 -0.20903 -0.27172 -0.15542 -0.10432 0.2012 0.10065 0.11199 0.26175 -0.2108 0.14478 0.13747 -0.10492 -0.29915 0.035236 -0.094273 -0.069176 -0.040374 -0.22923 -0.16727 0.029117 0.22845 -0.15107 -0.17835 0.00019982 0.31749 0.02988 -0.44958 -0.10733 0.058812 0.23505 0.08315 -0.17384 0.17537 0.06921 -0.038324 -0.020268 -0.10282 0.022306 -0.090097 0.043464 -0.057283 0.11391 0.038119 0.0011079 0.041701 0.14952 0.034147 0.073325 0.096041 -0.038344 -0.055485 -0.057505 -0.079781 0.15535 -0.087976 -0.032665 0.086415 0.061625 0.20925 -0.0091262 -0.23217 -0.089978 -0.093518 -0.04336 -0.062696 0.023946 0.019484 0.10335 0.065873 0.13355 0.013181 -0.055085 -0.004659 -0.2151 0.10245 -0.21898 0.1165 -0.11773 -0.13796 -0.139 0.079252 -0.05824 0.056385 -0.076565 -0.076638 0.084346 0.13087 0.044642 0.078033 0.051062 -0.13165 -0.1237 0.2291 0.08888 0.16689 0.032915 -0.078815 -0.080974 -0.26665 -0.03023 -0.045022 0.18861 -0.17141 -0.053535 0.046992 -0.0048076 0.046843 0.19787 -0.19502 -0.15624 0.19682 -0.24367 0.085373 0.0084106 -0.13214 0.036452 -0.25842 -0.029114 -0.025049 0.13948 -0.099134 -0.02082 -0.11049 0.10242 0.010059 0.19337 0.14084 0.093297 -0.18307 0.086442 -0.16286 -0.10297 -0.0201 -0.17381 -0.21192 0.077027 -0.011646 0.12962 0.20244 0.20483 0.033857 -0.27822 0.10016 0.22376 0.3558 0.12734 -0.17127 -0.21349 -0.31983 0.37965 -0.19541 0.22644 0.064227 -0.24776 -0.01247 -0.028257 0.034524 0.051779 0.32743 -0.16309 -0.07427 0.062457 -0.058776 -0.1019 -0.15027 -0.11766 0.17455 -0.15048 0.051789 -0.15709 -0.16226 -0.07498 0.086015 0.12523 -0.081961 0.061769 -0.14793 0.23779 -0.0024291 -0.034236 -0.062365 0.14347 -0.35525 -0.089541 0.092622 0.19522 -0.015219 -0.23307 -0.061698 -0.29601 0.055818 -0.17469 -0.12788 -0.060833 -0.1044 0.034547 0.0093145 -0.105 0.022067 -0.048311 0.068147 -0.12548 -0.026964 0.12432 -0.1299 -0.061389 -0.16811 0.13207 0.10768 -0.052866 0.044737 0.094406 0.11546 0.012887 0.023307 0.18796 0.0059966 -0.16201 -0.26727 0.19659 -0.12459 -0.029922 0.0030689 0.12196 0.17876 -0.23036 0.1649 -0.041041 0.079858 0.24063 -0.070363 0.12012 0.01822 0.10337 0.055804 -0.097934 0.14208 0.15008 0.13454 -0.031573 -0.17552 0.051201 0.090304 0.048435 0.11986 0.026941 0.090232 0.10805 -0.21405 -0.012796 0.33995 -0.074559 0.17898 0.24419 0.33662 0.11578 -0.030373 0.15002 0.29667 0.12636 -0.1976 0.083303 -0.025119 -0.038069 -0.085309 -0.11782 
上 0.1195 -0.11937 -0.067435 -0.093496 0.12445 0.15344 0.098468 -0.029785 0.12057 0.053991 0.07242 0.077381 0.010012 -0.11574 -0.14122 0.020434 -0.022713 -0.065488 0.00088351 -0.077835 -0.06909 -0.0068792 0.065634 -0.03351 -0.1092 -0.20705 -0.052391 0.029264 -0.1992 0.032301 -0.11951 -0.15422 -0.022296 0.10634 -0.14788 -0.19216 -0.10819 -0.072304 0.14312 0.072215 0.075885 0.18044 -0.14694 0.10049 0.098361 -0.072352 -0.20916 0.022582 -0.065983 -0.048022 -0.029216 -0.1599 -0.1201 0.019952 0.1613 -0.10687 -0.12438 0.0032447 0.22393 0.01807 -0.31497 -0.076837 0.041704 0.16223 0.060954 -0.11986 0.12022 0.049879 -0.02692 -0.01329 -0.071648 0.014833 -0.063573 0.030769 -0.042879 0.080137 0.02554 0.0012002 0.026075 0.10649 0.021829 0.050945 0.066138 -0.027875 -0.039519 -0.039346 -0.053792 0.11246 -0.063558 -0.023707 0.061277 0.04403 0.14521 -0.0081797 -0.16219 -0.060359 -0.067533 -0.027127 -0.042867 0.013599 0.015736 0.072781 0.044679 0.093719 0.0099518 -0.035335 -0.0012292 -0.1498 0.06992 -0.15388 0.080996 -0.083845 -0.098486 -0.099373 0.057328 -0.041589 0.039946 -0.055681 -0.057551 0.05869 0.09261 0.030291 0.053678 0.034152 -0.096073 -0.085106 0.16147 0.063019 0.11953 0.020151 -0.05527 -0.054673 -0.18833 -0.021625 -0.03014 0.13501 -0.12093 -0.036794 0.03025 -0.0054948 0.032002 0.13554 -0.13878 -0.10649 0.13887 -0.16801 0.058704 0.0075242 -0.091165 0.026237 -0.18091 -0.020348 -0.018566 0.096563 -0.067906 -0.018104 -0.078165 0.070393 0.0079133 0.1346 0.098014 0.067078 -0.13117 0.06127 -0.11645 -0.072562 -0.013216 -0.12173 -0.15143 0.054241 -0.0076193 0.089506 0.14195 0.14516 0.025717 -0.19473 0.071869 0.15658 0.25013 0.087308 -0.12161 -0.15095 -0.22535 0.26494 -0.13772 0.15566 0.047818 -0.16943 -0.0082477 -0.02102 0.020874 0.035552 0.22913 -0.11495 -0.054122 0.043122 -0.043014 -0.071442 -0.10566 -0.081186 0.12052 -0.10434 0.03886 -0.1099 -0.11066 -0.053125 0.059889 0.089479 -0.058734 0.042785 -0.10185 0.16342 -0.00020476 -0.021125 -0.046393 0.10234 -0.24559 -0.059489 0.063483 0.13619 -0.013917 -0.16183 -0.045911 -0.20726 0.039209 -0.12263 -0.091392 -0.044289 -0.073911 0.026572 0.0048666 -0.073356 0.01692 -0.032982 0.049573 -0.088924 -0.023142 0.087985 -0.088782 -0.042584 -0.11778 0.092447 0.073793 -0.039884 0.029669 0.065668 0.079874 0.0084168 0.01298 0.1321 0.0018587 -0.11523 -0.186 0.14128 -0.089219 -0.021944 0.0037996 0.083425 0.12378 -0.16163 0.11466 -0.029564 0.053513 0.16876 -0.049886 0.083359 0.015051 0.070619 0.039576 -0.067527 0.097995 0.10321 0.09228 -0.023466 -0.12307 0.034844 0.063788 0.035827 0.084888 0.020112 0.061974 0.074901 -0.14982 -0.0085482 0.24076 -0.051076 0.12478 0.1712 0.23498 0.079647 -0.018709 0.10489 0.21162 0.088471 -0.13904 0.057427 -0.016602 -0.023677 -0.057455 -0.08379 
个 0.1688 -0.16912 -0.091751 -0.12923 0.17351 0.21571 0.1404 -0.043898 0.17117 0.074243 0.10223 0.1137 0.01712 -0.16234 -0.20074 0.02712 -0.039622 -0.092563 0.0027057 -0.11118 -0.096968 -0.0083332 0.089656 -0.044014 -0.15166 -0.29249 -0.073946 0.039833 -0.28157 0.045526 -0.17033 -0.21806 -0.032784 0.14939 -0.20729 -0.27108 -0.15396 -0.099826 0.20086 0.097034 0.10858 0.26003 -0.21127 0.14249 0.13621 -0.10148 -0.29709 0.031743 -0.093287 -0.066639 -0.041331 -0.22799 -0.16711 0.028899 0.2237 -0.15105 -0.17579 0.00049382 0.31535 0.027069 -0.44314 -0.10413 0.058174 0.23085 0.081737 -0.16925 0.17298 0.069622 -0.037127 -0.017655 -0.10554 0.024482 -0.089027 0.042815 -0.058852 0.11029 0.037583 0.0026729 0.03811 0.1521 0.034108 0.071763 0.095642 -0.039344 -0.055916 -0.055947 -0.073398 0.15444 -0.084597 -0.036377 0.084088 0.059576 0.20565 -0.0081284 -0.22607 -0.086161 -0.097004 -0.039835 -0.058715 0.022626 0.021582 0.10551 0.065902 0.13313 0.015694 -0.051033 -0.0031666 -0.21393 0.10072 -0.21728 0.11334 -0.11622 -0.1398 -0.13803 0.080466 -0.057032 0.05649 -0.077724 -0.075951 0.08429 0.1281 0.043664 0.074118 0.048512 -0.12948 -0.12253 0.22553 0.087884 0.16621 0.029741 -0.077386 -0.080356 -0.26622 -0.034182 -0.044372 0.18561 -0.16834 -0.049576 0.045536 -0.0034948 0.043688 0.19537 -0.19279 -0.15168 0.19204 -0.24226 0.084856 0.0064558 -0.12898 0.035649 -0.25783 -0.027733 -0.022562 0.1394 -0.095095 -0.020287 -0.10932 0.099829 0.012403 0.19297 0.13791 0.092711 -0.18213 0.085975 -0.16407 -0.097899 -0.021884 -0.17042 -0.20993 0.076372 -0.01251 0.12901 0.19557 0.20414 0.03405 -0.27559 0.09933 0.218 0.35271 0.12088 -0.16808 -0.21134 -0.3164 0.37151 -0.19475 0.22174 0.060955 -0.24474 -0.010596 -0.027354 0.031814 0.049983 0.32271 -0.16096 -0.075933 0.061221 -0.059197 -0.099734 -0.15038 -0.1181 0.17042 -0.14982 0.053619 -0.15325 -0.15991 -0.075636 0.08531 0.12091 -0.085058 0.060655 -0.14863 0.23618 -0.0018063 -0.031876 -0.061471 0.14135 -0.35078 -0.08578 0.090238 0.19119 -0.020634 -0.23023 -0.060851 -0.29474 0.052941 -0.1716 -0.12734 -0.063518 -0.10293 0.036826 0.0093311 -0.10257 0.019955 -0.048018 0.064681 -0.12477 -0.027976 0.12356 -0.12798 -0.058469 -0.1651 0.12846 0.10597 -0.051826 0.042205 0.094964 0.1138 0.013163 0.025213 0.18501 0.0038801 -0.16056 -0.26564 0.19911 -0.12279 -0.028899 0.0077566 0.11755 0.17861 -0.22919 0.16306 -0.044265 0.078563 0.23787 -0.067419 0.11899 0.018994 0.099705 0.05356 -0.095329 0.14051 0.14717 0.13501 -0.029657 -0.17295 0.051283 0.086665 0.048956 0.11873 0.026228 0.090306 0.10524 -0.21178 -0.013015 0.33726 -0.074726 0.17719 0.24203 0.33104 0.11569 -0.029583 0.14981 0.29581 0.1273 -0.19435 0.079218 -0.020508 -0.035039 -0.080776 -0.11253 
超速 0.10477 -0.10357 -0.0573 -0.079769 0.10519 0.13293 0.087219 -0.026418 0.10351 0.044246 0.062181 0.066628 0.0092968 -0.10096 -0.11853 0.015678 -0.022557 -0.057478 0.0039229 -0.069204 -0.061385 -0.0058989 0.055483 -0.027188 -0.091185 -0.17689 -0.046548 0.025339 -0.16991 0.028075 -0.10307 -0.13287 -0.019148 0.089967 -0.1283 -0.16373 -0.09277 -0.059547 0.12428 0.061821 0.063884 0.15857 -0.12868 0.085955 0.083734 -0.061123 -0.18268 0.021077 -0.05868 -0.040519 -0.024843 -0.13896 -0.10269 0.018995 0.13767 -0.091487 -0.10746 0.00085741 0.19278 0.01614 -0.2707 -0.064064 0.035367 0.13977 0.050246 -0.10451 0.10372 0.042233 -0.022846 -0.010175 -0.063704 0.015089 -0.054142 0.025439 -0.035024 0.066679 0.021661 0.0010073 0.023424 0.090188 0.019004 0.044681 0.056933 -0.024942 -0.034251 -0.034615 -0.045109 0.094479 -0.052596 -0.022089 0.052469 0.038349 0.12609 -0.005522 -0.13778 -0.052187 -0.055511 -0.027237 -0.03763 0.013375 0.011482 0.062357 0.041189 0.079199 0.0087033 -0.032689 -0.0040189 -0.12911 0.06127 -0.13029 0.070022 -0.070581 -0.083968 -0.083369 0.049101 -0.037144 0.03295 -0.044948 -0.045651 0.052861 0.078304 0.02696 0.048645 0.030827 -0.081025 -0.074248 0.13936 0.052218 0.1004 0.018717 -0.046872 -0.047816 -0.16269 -0.018819 -0.027345 0.11357 -0.10354 -0.031061 0.027763 -0.0015218 0.027187 0.11826 -0.11745 -0.092858 0.11697 -0.14753 0.051072 0.0046864 -0.079964 0.022201 -0.15606 -0.017255 -0.014257 0.083677 -0.059612 -0.014193 -0.066512 0.061869 0.0086275 0.11716 0.081809 0.054861 -0.11118 0.054233 -0.098921 -0.060966 -0.011246 -0.10349 -0.12898 0.047759 -0.0059255 0.079515 0.11966 0.12348 0.020994 -0.16938 0.061417 0.13331 0.21561 0.07337 -0.10292 -0.12989 -0.19075 0.22947 -0.11724 0.13471 0.038072 -0.149 -0.0082576 -0.015804 0.02071 0.029948 0.19844 -0.098107 -0.043985 0.03979 -0.034983 -0.058841 -0.089214 -0.069815 0.10408 -0.089048 0.033214 -0.095308 -0.097764 -0.045105 0.052764 0.075565 -0.051701 0.037164 -0.090784 0.14219 -0.0018804 -0.020265 -0.036874 0.087339 -0.21296 -0.053172 0.056737 0.11686 -0.011849 -0.14146 -0.037264 -0.17802 0.03308 -0.10637 -0.079053 -0.038829 -0.060273 0.021776 0.0032505 -0.06209 0.01245 -0.030156 0.039333 -0.075861 -0.019832 0.076682 -0.077998 -0.036773 -0.0992 0.080003 0.063946 -0.033017 0.026553 0.055715 0.068159 0.0073807 0.01345 0.1134 0.004853 -0.097215 -0.16215 0.12143 -0.073628 -0.015337 0.0028957 0.074571 0.10896 -0.13883 0.099936 -0.027318 0.046716 0.14335 -0.042681 0.073626 0.012263 0.061214 0.033199 -0.059063 0.085285 0.090251 0.081021 -0.019004 -0.10524 0.030433 0.054858 0.027391 0.074512 0.014912 0.055739 0.063583 -0.12954 -0.0096256 0.20736 -0.043739 0.10609 0.14913 0.20414 0.06788 -0.019012 0.090806 0.18137 0.075523 -0.1178 0.049008 -0.013515 -0.023942 -0.049617 -0.069227 
